{"learner":{"attributes":{"scikit_learn":"{\"_estimator_type\": \"classifier\"}"},"feature_names":[],"feature_types":[],"gradient_booster":{"model":{"cats":{"enc":[],"feature_segments":[],"sorted_idx":[]},"gbtree_model_param":{"num_parallel_tree":"1","num_trees":"300"},"iteration_indptr":[0,1,2,3,4,5,6,7,8,9,10,11,12,13,14,15,16,17,18,19,20,21,22,23,24,25,26,27,28,29,30,31,32,33,34,35,36,37,38,39,40,41,42,43,44,45,46,47,48,49,50,51,52,53,54,55,56,57,58,59,60,61,62,63,64,65,66,67,68,69,70,71,72,73,74,75,76,77,78,79,80,81,82,83,84,85,86,87,88,89,90,91,92,93,94,95,96,97,98,99,100,101,102,103,104,105,106,107,108,109,110,111,112,113,114,115,116,117,118,119,120,121,122,123,124,125,126,127,128,129,130,131,132,133,134,135,136,137,138,139,140,141,142,143,144,145,146,147,148,149,150,151,152,153,154,155,156,157,158,159,160,161,162,163,164,165,166,167,168,169,170,171,172,173,174,175,176,177,178,179,180,181,182,183,184,185,186,187,188,189,190,191,192,193,194,195,196,197,198,199,200,201,202,203,204,205,206,207,208,209,210,211,212,213,214,215,216,217,218,219,220,221,222,223,224,225,226,227,228,229,230,231,232,233,234,235,236,237,238,239,240,241,242,243,244,245,246,247,248,249,250,251,252,253,254,255,256,257,258,259,260,261,262,263,264,265,266,267,268,269,270,271,272,273,274,275,276,277,278,279,280,281,282,283,284,285,286,287,288,289,290,291,292,293,294,295,296,297,298,299,300],"tree_info":[0,0,0,0,0,0,0,0,0,0,0,0,0,0,0,0,0,0,0,0,0,0,0,0,0,0,0,0,0,0,0,0,0,0,0,0,0,0,0,0,0,0,0,0,0,0,0,0,0,0,0,0,0,0,0,0,0,0,0,0,0,0,0,0,0,0,0,0,0,0,0,0,0,0,0,0,0,0,0,0,0,0,0,0,0,0,0,0,0,0,0,0,0,0,0,0,0,0,0,0,0,0,0,0,0,0,0,0,0,0,0,0,0,0,0,0,0,0,0,0,0,0,0,0,0,0,0,0,0,0,0,0,0,0,0,0,0,0,0,0,0,0,0,0,0,0,0,0,0,0,0,0,0,0,0,0,0,0,0,0,0,0,0,0,0,0,0,0,0,0,0,0,0,0,0,0,0,0,0,0,0,0,0,0,0,0,0,0,0,0,0,0,0,0,0,0,0,0,0,0,0,0,0,0,0,0,0,0,0,0,0,0,0,0,0,0,0,0,0,0,0,0,0,0,0,0,0,0,0,0,0,0,0,0,0,0,0,0,0,0,0,0,0,0,0,0,0,0,0,0,0,0,0,0,0,0,0,0,0,0,0,0,0,0,0,0,0,0,0,0,0,0,0,0,0,0,0,0,0,0,0,0,0,0,0,0,0,0,0,0,0,0,0,0,0,0,0,0,0,0],"trees":[{"base_weights":[2.3012757E-3,-8.184307E-1,9.0311515E-1,-4.7684905E-1,-9.978379E-1,-1.6397616E-2,1.8256744E0,-2.0032103E-1,-6.358092E-1,-7.964006E-1,-1.0756391E0,-3.4558034E-1,2.670873E-1,1.3859849E0,2.6211731E0,-4.0109134E-1,1.5863594E-1,-6.8187016E-1,-1.13365255E-1,-9.003079E-1,-6.602666E-1,-9.8734015E-1,-1.14889E0,-4.729311E-1,-1.95531E-1,5.559316E-1,-6.774144E-1,1.8030492E0,3.062993E-1,2.084438E0,3.017494E0,-8.929599E-2,-5.340859E-1,-7.917543E-2,6.1766785E-1,-4.0263042E-1,-7.2603315E-1,1.0521793E0,-2.032842E-1,-9.4338006E-1,-6.170111E-1,-8.9216816E-1,-4.9431857E-1,-9.9451554E-1,-2.9912293E-1,-1.0615357E0,-1.1891798E-1,-3.2787433E-1,-6.021918E-1,-4.5932716E-1,-8.360015E-2,4.5647922E-1,1.4512966E0,-2.7865267E-1,-1.0115725E0,1.3058283E0,2.314131E0,-1.3051978E-1,8.727962E-1,1.5289494E0,2.3835402E0,3.1645566E-2,3.0339017E0,-7.509889E-2,5.3065154E-3,-4.4783812E-2,-9.786784E-2,5.3717732E-2,-2.4571473E-2,-6.1164152E-2,7.160673E-2,-4.443743E-2,1.2175762E-1,-1.0001051E-1,-6.301826E-2,-2.3008563E-2,1.9099283E-1,1.2024788E-2,-5.3239852E-2,-1.0471348E-1,-7.85576E-2,-7.012552E-2,1.0182559E-1,-2.3799185E-2,-9.203935E-2,-5.2560627E-2,6.652015E-2,-0E0,-9.972346E-2,-7.308065E-2,8.481793E-2,-1.07501805E-1,-3.3873037E-2,4.1476924E-2,-3.7171606E-2,-7.582999E-2,-3.935961E-2,-2.5523782E-2,-7.88941E-2,1.6501294E-3,-5.2025266E-2,6.313257E-2,-4.9736556E-2,1.695759E-1,7.195456E-2,-4.2668503E-2,1.2602983E-1,2.130358E-2,-1.0429384E-1,9.8755784E-2,1.968333E-1,1.3725065E-1,2.6559696E-1,-5.2919835E-2,2.3759661E-2,2.158744E-2,1.5570064E-1,1.8007661E-1,-1.6649535E-2,2.9769927E-1,2.1727996E-1,7.3341034E-2,3.0407375E-1],"categories":[],"categories_nodes":[],"categories_segments":[],"categories_sizes":[],"default_left":[0,0,0,0,0,0,0,0,0,0,0,0,0,0,0,0,0,0,0,0,0,0,0,0,0,0,0,0,0,0,0,0,0,0,0,0,0,0,0,0,0,0,0,0,0,0,0,0,0,0,0,0,0,0,0,0,0,0,0,0,0,0,0,0,0,0,0,0,0,0,0,0,0,0,0,0,0,0,0,0,0,0,0,0,0,0,0,0,0,0,0,0,0,0,0,0,0,0,0,0,0,0,0,0,0,0,0,0,0,0,0,0,0,0,0,0,0,0,0,0,0,0,0],"id":0,"left_children":[1,3,5,7,9,11,13,15,17,19,21,23,25,27,29,31,33,35,37,39,41,43,45,47,49,51,53,55,57,59,61,63,65,67,69,71,73,75,77,79,81,83,85,87,89,91,-1,93,95,97,99,101,103,105,107,109,111,113,115,117,119,-1,121,-1,-1,-1,-1,-1,-1,-1,-1,-1,-1,-1,-1,-1,-1,-1,-1,-1,-1,-1,-1,-1,-1,-1,-1,-1,-1,-1,-1,-1,-1,-1,-1,-1,-1,-1,-1,-1,-1,-1,-1,-1,-1,-1,-1,-1,-1,-1,-1,-1,-1,-1,-1,-1,-1,-1,-1,-1,-1,-1,-1],"loss_changes":[3.6762986E3,1.5882312E2,2.011241E3,3.926558E1,2.5673462E1,1.1098285E2,4.0989624E2,2.3834307E1,1.3549545E1,6.0278015E0,6.5855713E0,1.0358124E1,1.746446E2,3.434292E2,8.255469E1,8.671589E0,1.3063412E1,6.0450745E0,5.1096087E0,2.5393372E0,7.5633163E0,2.357727E0,8.483887E-1,5.271797E0,7.4291363E0,4.2765564E1,1.9573792E1,1.3666333E2,5.3208E1,2.6164185E1,9.310059E0,6.208761E0,5.095146E0,8.207065E0,5.3807316E0,5.467313E0,1.1030029E1,4.441496E0,4.9007173E0,2.775467E0,6.0060787E0,1.2671738E0,4.9006386E0,1.4299316E0,4.2693863E0,1.6343842E0,0E0,4.78442E0,4.643669E0,4.766491E0,7.9416995E0,7.411494E1,7.1982574E0,1.63778E1,3.4196548E0,5.7166046E1,8.2979614E1,1.8022388E1,4.1518097E1,3.1120193E1,7.5543213E0,0E0,1.1306152E0,0E0,0E0,0E0,0E0,0E0,0E0,0E0,0E0,0E0,0E0,0E0,0E0,0E0,0E0,0E0,0E0,0E0,0E0,0E0,0E0,0E0,0E0,0E0,0E0,0E0,0E0,0E0,0E0,0E0,0E0,0E0,0E0,0E0,0E0,0E0,0E0,0E0,0E0,0E0,0E0,0E0,0E0,0E0,0E0,0E0,0E0,0E0,0E0,0E0,0E0,0E0,0E0,0E0,0E0,0E0,0E0,0E0,0E0,0E0,0E0],"parents":[2147483647,0,0,1,1,2,2,3,3,4,4,5,5,6,6,7,7,8,8,9,9,10,10,11,11,12,12,13,13,14,14,15,15,16,16,17,17,18,18,19,19,20,20,21,21,22,22,23,23,24,24,25,25,26,26,27,27,28,28,29,29,30,30,31,31,32,32,33,33,34,34,35,35,36,36,37,37,38,38,39,39,40,40,41,41,42,42,43,43,44,44,45,45,47,47,48,48,49,49,50,50,51,51,52,52,53,53,54,54,55,55,56,56,57,57,58,58,59,59,60,60,62,62],"right_children":[2,4,6,8,10,12,14,16,18,20,22,24,26,28,30,32,34,36,38,40,42,44,46,48,50,52,54,56,58,60,62,64,66,68,70,72,74,76,78,80,82,84,86,88,90,92,-1,94,96,98,100,102,104,106,108,110,112,114,116,118,120,-1,122,-1,-1,-1,-1,-1,-1,-1,-1,-1,-1,-1,-1,-1,-1,-1,-1,-1,-1,-1,-1,-1,-1,-1,-1,-1,-1,-1,-1,-1,-1,-1,-1,-1,-1,-1,-1,-1,-1,-1,-1,-1,-1,-1,-1,-1,-1,-1,-1,-1,-1,-1,-1,-1,-1,-1,-1,-1,-1,-1,-1],"split_conditions":[1.4337353E0,2.7480745E-1,7.2315745E0,8.159871E-2,4.875631E-1,2.173344E0,2.4813694E1,7.4079204E3,1.5762613E1,2.6760174E1,8.366793E-1,1.9162727E1,4.7323322E1,3.3863148E1,3.7898384E1,2.1533237E0,-3.437358E-1,1.9784398E0,-7.799519E0,9.8048125E3,4.3257236E3,9.8892164E-1,4.2043175E1,1.9784398E0,1.9143544E3,1.6681648E0,8.048694E0,9.116875E3,1.4722879E1,9.364684E-1,6.391077E3,-7.979133E0,4.26644E1,2.772633E3,7.5236445E3,5.7248913E1,3.8813435E3,1.6127491E1,1.6127491E1,6.517733E-1,5.428862E1,1.8243013E3,-9.391128E0,1.0362234E-1,2.9517346E3,4.180744E1,-1.1891798E-1,-1.6051593E2,5.964345E-1,4.8368046E1,1.0970043E2,3.824734E1,1.648317E1,3.1555073E1,2.1795266E0,1.4118035E1,5.8660045E0,3.814217E1,2.734345E3,5.242399E1,4.3065205E1,3.1645566E-2,9.1411566E2,-7.509889E-2,5.3065154E-3,-4.4783812E-2,-9.786784E-2,5.3717732E-2,-2.4571473E-2,-6.1164152E-2,7.160673E-2,-4.443743E-2,1.2175762E-1,-1.0001051E-1,-6.301826E-2,-2.3008563E-2,1.9099283E-1,1.2024788E-2,-5.3239852E-2,-1.0471348E-1,-7.85576E-2,-7.012552E-2,1.0182559E-1,-2.3799185E-2,-9.203935E-2,-5.2560627E-2,6.652015E-2,-0E0,-9.972346E-2,-7.308065E-2,8.481793E-2,-1.07501805E-1,-3.3873037E-2,4.1476924E-2,-3.7171606E-2,-7.582999E-2,-3.935961E-2,-2.5523782E-2,-7.88941E-2,1.6501294E-3,-5.2025266E-2,6.313257E-2,-4.9736556E-2,1.695759E-1,7.195456E-2,-4.2668503E-2,1.2602983E-1,2.130358E-2,-1.0429384E-1,9.8755784E-2,1.968333E-1,1.3725065E-1,2.6559696E-1,-5.2919835E-2,2.3759661E-2,2.158744E-2,1.5570064E-1,1.8007661E-1,-1.6649535E-2,2.9769927E-1,2.1727996E-1,7.3341034E-2,3.0407375E-1],"split_indices":[1,15,12,15,15,12,1,9,12,2,15,1,2,2,11,4,1,12,4,9,9,5,2,12,9,15,4,9,1,15,9,4,2,10,9,2,9,12,12,5,11,9,1,5,10,2,0,3,5,2,3,2,4,11,12,1,1,11,10,2,2,0,10,0,0,0,0,0,0,0,0,0,0,0,0,0,0,0,0,0,0,0,0,0,0,0,0,0,0,0,0,0,0,0,0,0,0,0,0,0,0,0,0,0,0,0,0,0,0,0,0,0,0,0,0,0,0,0,0,0,0,0,0],"split_type":[0,0,0,0,0,0,0,0,0,0,0,0,0,0,0,0,0,0,0,0,0,0,0,0,0,0,0,0,0,0,0,0,0,0,0,0,0,0,0,0,0,0,0,0,0,0,0,0,0,0,0,0,0,0,0,0,0,0,0,0,0,0,0,0,0,0,0,0,0,0,0,0,0,0,0,0,0,0,0,0,0,0,0,0,0,0,0,0,0,0,0,0,0,0,0,0,0,0,0,0,0,0,0,0,0,0,0,0,0,0,0,0,0,0,0,0,0,0,0,0,0,0,0],"sum_hessian":[4.9704834E3,2.6008386E3,2.369645E3,8.9707355E2,1.703765E3,1.1872197E3,1.1824253E3,3.285008E2,5.6857275E2,4.7819064E2,1.2255743E3,5.493954E2,6.378243E2,7.6336487E2,4.190605E2,2.1077322E2,1.17727585E2,5.220499E2,4.6522816E1,2.6759497E2,2.1059566E2,5.6289056E2,6.626838E2,2.9565073E2,2.5374467E2,4.8884473E2,1.4897955E2,5.5010565E2,2.1325917E2,1.8076422E2,2.3829626E2,6.3746914E1,1.470263E2,7.7952354E1,3.9775234E1,7.2980446E1,4.490695E2,2.4859521E0,4.4036865E1,2.2995056E2,3.7644417E1,8.576534E1,1.2483031E2,5.564981E2,6.392448E0,2.1858621E2,4.4409756E2,1.4134413E2,1.543066E2,7.440099E1,1.7934369E2,4.4143405E2,4.7410656E1,6.8896385E1,8.008317E1,2.8073502E2,2.6937067E2,1.2074624E2,9.251293E1,6.552259E1,1.1524163E2,1.598112E0,2.3669815E2,1.065408E1,5.3092834E1,1.2500787E2,2.2018433E1,1.598112E1,6.1971233E1,2.4859521E0,3.728928E1,7.191504E1,1.065408E0,1.13643524E2,3.3542596E2,1.2429761E0,1.2429761E0,2.2373568E1,2.1663296E1,1.3495168E2,9.499888E1,3.640144E1,1.2429761E0,4.084064E0,8.168128E1,1.2216679E2,2.66352E0,1.598112E0,5.549E2,4.9719043E0,1.420544E0,2.1396944E2,4.616768E0,7.280288E0,1.3406384E2,8.647562E1,6.783098E1,4.723309E1,2.7167904E1,1.464936E2,3.2850082E1,3.734255E2,6.8008545E1,3.4448193E1,1.2962464E1,6.3569344E1,5.32704E0,1.7756801E0,7.830749E1,1.914183E2,8.93167E1,7.315802E1,1.9621265E2,5.788717E1,6.2859074E1,4.794336E1,4.456957E1,5.6466625E1,9.055968E0,2.66352E1,8.860643E1,1.065408E0,2.3563274E2],"tree_param":{"num_deleted":"0","num_feature":"17","num_nodes":"123","size_leaf_vector":"1"}},{"base_weights":[4.2037535E-3,9.2488295E-1,-1.1317339E0,-3.975643E-1,2.1579478E0,-5.496787E-1,-1.2401084E0,-8.2429403E-1,-3.3140727E-4,3.6105397E0,2.0355556E0,-1.0235623E0,1.577433E0,-1.0268523E0,-1.2792379E-1,6.389195E-2,-9.070111E-1,2.3956912E0,-1.2002642E-1,2.7393284E0,4.1824418E-1,2.2675886E0,1.3117645E0,-1.1037114E0,-1.5012996E-1,8.694175E-1,2.0846198E0,-1.1943175E0,2.7044958E-1,-6.401652E-1,3.967518E-1,-1.160775E-1,-8.3569133E-1,2.8486376E0,1.174917E-1,-2.966105E-1,4.8379987E-1,3.2150726E0,-2.6724002E-1,1.5524353E0,2.642904E0,-2.6355121E-2,1.8716952E0,-1.2386075E0,-9.375644E-1,1.4109237E0,-6.7372674E-1,1.7320547E0,1.12009495E-1,2.4150012E0,2.2619314E-1,-1.2448447E0,-7.495128E-1,-7.374147E-1,1.1526656E0,1.4145071E-2,-7.9053916E-2,-4.2388316E-2,7.0599556E-2,-5.888876E-2,-8.856834E-2,1.2296678E-1,3.3872724E-1,9.104637E-2,-4.925324E-2,-2.1292226E-2,-8.105905E-2,6.385856E-2,-5.026669E-2,3.4280849E-1,1.1709551E-1,-7.112592E-2,9.007525E-2,2.0713711E-1,5.3459723E-2,3.0006456E-1,2.3895E-1,5.9865203E-2,-2.1156644E-2,1.23623395E-2,2.2460066E-1,3.312377E-2,-1.2592135E-1,-1.1464187E-1,-6.683046E-2,2.0623942E-1,-1.1932481E-2,3.5832684E-2,-9.479003E-2,1.9128558E-1,-1.7059406E-2,1.4626007E-1,-3.4443136E-2,2.5787562E-1,7.631365E-2,9.541652E-2,-8.445264E-2,-1.2530543E-1,-4.0617727E-2,-1.191113E-1,4.0787008E-2,1.4172002E-2,-1.0703768E-1,2.2243956E-1,2.5329826E-2],"categories":[],"categories_nodes":[],"categories_segments":[],"categories_sizes":[],"default_left":[0,0,0,0,0,0,0,0,0,0,0,0,0,0,0,0,0,0,0,0,0,0,0,0,0,0,0,0,0,0,0,0,0,0,0,0,0,0,0,0,0,0,0,0,0,0,0,0,0,0,0,0,0,0,0,0,0,0,0,0,0,0,0,0,0,0,0,0,0,0,0,0,0,0,0,0,0,0,0,0,0,0,0,0,0,0,0,0,0,0,0,0,0,0,0,0,0,0,0,0,0,0,0,0,0],"id":1,"left_children":[1,3,5,7,9,11,13,15,17,19,21,23,25,27,-1,29,31,33,35,37,-1,39,41,43,45,47,49,51,53,55,57,-1,59,61,63,65,67,69,71,73,75,77,79,81,83,85,87,89,91,93,95,97,99,101,103,-1,-1,-1,-1,-1,-1,-1,-1,-1,-1,-1,-1,-1,-1,-1,-1,-1,-1,-1,-1,-1,-1,-1,-1,-1,-1,-1,-1,-1,-1,-1,-1,-1,-1,-1,-1,-1,-1,-1,-1,-1,-1,-1,-1,-1,-1,-1,-1,-1,-1],"loss_changes":[5.2299546E3,4.5051475E3,1.4035205E2,2.25972E2,2.4624365E2,3.577188E2,1.4196289E1,4.7367035E1,1.9845583E2,4.2526367E1,2.1849268E2,1.9982422E1,2.1136383E1,6.513809E1,0E0,1.3258357E1,9.475647E0,3.3340866E1,7.048248E1,6.760208E1,0E0,2.6354004E2,2.423316E2,4.5604553E0,2.1804213E1,1.8447653E1,2.1855576E1,4.8032837E0,3.1840565E1,2.3079329E0,1.0088212E1,0E0,5.043976E0,1.9251389E1,3.6536195E0,2.1718014E1,2.3170704E1,1.3036224E1,4.3770747E0,1.8151904E2,5.1529785E1,1.1230191E1,1.4858197E2,5.129425E0,5.980156E0,7.12568E0,6.0288515E0,5.089615E0,1.0770976E1,6.1360626E0,6.0556097E0,9.46228E-1,1.572122E1,5.163294E0,1.750602E1,0E0,0E0,0E0,0E0,0E0,0E0,0E0,0E0,0E0,0E0,0E0,0E0,0E0,0E0,0E0,0E0,0E0,0E0,0E0,0E0,0E0,0E0,0E0,0E0,0E0,0E0,0E0,0E0,0E0,0E0,0E0,0E0,0E0,0E0,0E0,0E0,0E0,0E0,0E0,0E0,0E0,0E0,0E0,0E0,0E0,0E0,0E0,0E0,0E0,0E0],"parents":[2147483647,0,0,1,1,2,2,3,3,4,4,5,5,6,6,7,7,8,8,9,9,10,10,11,11,12,12,13,13,15,15,16,16,17,17,18,18,19,19,21,21,22,22,23,23,24,24,25,25,26,26,27,27,28,28,29,29,30,30,32,32,33,33,34,34,35,35,36,36,37,37,38,38,39,39,40,40,41,41,42,42,43,43,44,44,45,45,46,46,47,47,48,48,49,49,50,50,51,51,52,52,53,53,54,54],"right_children":[2,4,6,8,10,12,14,16,18,20,22,24,26,28,-1,30,32,34,36,38,-1,40,42,44,46,48,50,52,54,56,58,-1,60,62,64,66,68,70,72,74,76,78,80,82,84,86,88,90,92,94,96,98,100,102,104,-1,-1,-1,-1,-1,-1,-1,-1,-1,-1,-1,-1,-1,-1,-1,-1,-1,-1,-1,-1,-1,-1,-1,-1,-1,-1,-1,-1,-1,-1,-1,-1,-1,-1,-1,-1,-1,-1,-1,-1,-1,-1,-1,-1,-1,-1,-1,-1,-1,-1],"split_conditions":[1.534656E0,7.272024E-1,1.8045411E0,-1.6946787E1,2.198213E3,2.3797096E1,2.1056247E0,4.5130916E0,1.997927E0,1.2895515E1,4.6450405E1,1.7791718E1,3.4217834E1,3.2637604E1,-1.2792379E-1,-3.678201E1,-4.1844322E1,1.1987652E0,-3.198848E0,1.3450636E0,4.1824418E-1,2.4237713E-1,2.5221577E1,2.8859482E1,3.1886265E1,1.6453449E0,1.8354579E0,2.2593016E1,1.2214401E0,1.8951163E3,3.7842464E1,-1.160775E-1,4.7798562E-1,-1.09754095E1,3.883447E1,1.297619E0,1.2863903E0,4.4299496E1,2.0356338E0,2.0640274E1,2.720063E1,-1.0557071E2,6.371276E3,1.826311E1,-1.7264633E1,4.327921E1,1.5873727E0,5.3488388E1,5.141078E0,5.2406895E1,1.3021635E1,5.9159122E1,1.0415151E0,1.8535719E0,4.986066E1,1.4145071E-2,-7.9053916E-2,-4.2388316E-2,7.0599556E-2,-5.888876E-2,-8.856834E-2,1.2296678E-1,3.3872724E-1,9.104637E-2,-4.925324E-2,-2.1292226E-2,-8.105905E-2,6.385856E-2,-5.026669E-2,3.4280849E-1,1.1709551E-1,-7.112592E-2,9.007525E-2,2.0713711E-1,5.3459723E-2,3.0006456E-1,2.3895E-1,5.9865203E-2,-2.1156644E-2,1.23623395E-2,2.2460066E-1,3.312377E-2,-1.2592135E-1,-1.1464187E-1,-6.683046E-2,2.0623942E-1,-1.1932481E-2,3.5832684E-2,-9.479003E-2,1.9128558E-1,-1.7059406E-2,1.4626007E-1,-3.4443136E-2,2.5787562E-1,7.631365E-2,9.541652E-2,-8.445264E-2,-1.2530543E-1,-4.0617727E-2,-1.191113E-1,4.0787008E-2,1.4172002E-2,-1.0703768E-1,2.2243956E-1,2.5329826E-2],"split_indices":[14,1,14,1,9,1,14,12,12,1,2,1,1,1,0,1,1,14,1,14,0,15,1,2,11,14,15,1,15,9,11,0,15,1,11,14,14,2,12,2,2,3,9,11,1,2,14,11,12,11,4,2,15,14,2,0,0,0,0,0,0,0,0,0,0,0,0,0,0,0,0,0,0,0,0,0,0,0,0,0,0,0,0,0,0,0,0,0,0,0,0,0,0,0,0,0,0,0,0,0,0,0,0,0,0],"split_type":[0,0,0,0,0,0,0,0,0,0,0,0,0,0,0,0,0,0,0,0,0,0,0,0,0,0,0,0,0,0,0,0,0,0,0,0,0,0,0,0,0,0,0,0,0,0,0,0,0,0,0,0,0,0,0,0,0,0,0,0,0,0,0,0,0,0,0,0,0,0,0,0,0,0,0,0,0,0,0,0,0,0,0,0,0,0,0,0,0,0,0,0,0,0,0,0,0,0,0,0,0,0,0,0,0],"sum_hessian":[4.998768E3,2.7611365E3,2.2376316E3,1.3325688E3,1.4285677E3,3.5233173E2,1.8852999E3,6.4179254E2,6.9077625E2,1.0873598E2,1.3198318E3,2.8860202E2,6.372972E1,2.9691428E2,1.5883856E3,5.459454E1,5.87198E2,3.1921894E1,6.588544E2,4.5455593E1,6.3280384E1,9.9771344E2,3.221183E2,2.639985E2,2.4603512E1,2.7813868E1,3.591585E1,2.63107E2,3.3807297E1,1.7132544E1,3.7461998E1,1.2516587E2,4.6203217E2,2.6382336E1,5.5395584E0,5.1029666E2,1.4855771E2,3.9214413E1,6.2411795E0,3.452506E2,6.524628E2,9.5254326E1,2.2686397E2,1.4180722E2,1.2219128E2,5.705989E0,1.8897522E1,1.2340274E1,1.5473595E1,3.0194698E1,5.721152E0,2.3445122E2,2.8655767E1,1.5803636E1,1.800366E1,2.6665647E0,1.4465979E1,1.0063248E1,2.739875E1,8.0313835E1,3.8171832E2,7.4521284E0,1.8930208E1,2.2657402E0,3.2738183E0,4.4022614E2,7.007051E1,1.2880157E2,1.975613E1,3.485617E1,4.358241E0,4.867449E0,1.3737308E0,2.279162E2,1.1733441E2,2.6587698E2,3.8658585E2,2.114089E1,7.4113434E1,4.0292297E1,1.8657167E2,1.5790689E0,1.4022815E2,6.677076E1,5.542052E1,3.804081E0,1.9019079E0,3.8255575E0,1.5071965E1,1.1312487E1,1.0277866E0,3.407035E0,1.206656E1,2.6905783E1,3.2889173E0,3.5260649E0,2.195087E0,2.3157106E2,2.8801575E0,2.0783188E1,7.8725796E0,4.416523E0,1.1387113E1,7.491704E0,1.0511957E1],"tree_param":{"num_deleted":"0","num_feature":"17","num_nodes":"105","size_leaf_vector":"1"}},{"base_weights":[-1.4148982E-2,7.7257174E-1,-1.1006957E0,-4.5944494E-1,1.6751969E0,-5.4844445E-1,-1.213258E0,6.664795E-1,-5.8192307E-1,8.461271E-1,1.8473265E0,-1.0582373E0,1.217472E0,-1.0273813E0,-1.2475636E-1,2.37828E-1,1.6566919E0,-8.342995E-1,-2.2775559E-1,1.6054698E0,4.1561046E-1,2.8197289E0,1.7497671E0,-1.0909745E0,-3.3843103E-1,3.6771423E-1,1.6270341E0,-1.1552931E0,2.2559756E-1,-5.634728E-1,4.9286553E-1,1.9830277E0,-4.799977E-1,-9.862857E-1,-6.517597E-1,-1.5215391E-1,-6.9835204E-1,2.1646261E0,1.0475878E0,6.755186E-1,-6.275615E-1,2.9245546E0,1.4701871E0,1.8114009E0,7.1330255E-1,-1.1277971E0,-8.7335867E-1,5.218348E-1,-1.1222029E-1,9.837512E-1,-3.7912974E-1,2.1216614E0,1.207547E0,-1.21410586E-1,-7.4834526E-1,9.3205935E-1,-2.965612E-1,2.189612E-2,-7.985729E-2,7.2721116E-2,-5.2566804E-2,2.1209335E-1,4.767821E-2,2.351082E-2,-8.988177E-2,-2.6393993E-2,-9.9459864E-2,1.4504023E-2,-6.821522E-2,-2.311929E-2,1.4643888E-2,4.843941E-2,-7.46013E-2,2.2551146E-1,3.874252E-2,4.262104E-2,1.3109224E-1,8.0155015E-2,-1.30676E-2,7.041286E-2,-7.078276E-2,2.537394E-1,3.1214154E-1,-5.1480285E-3,2.397007E-1,7.837096E-2,1.8271646E-1,-7.040389E-2,1.5669066E-1,-1.1749269E-1,-9.441035E-2,8.802773E-3,-9.643518E-2,1.7713092E-1,-5.559151E-3,1.1793917E-1,-4.0945303E-2,1.1621406E-1,-7.555727E-2,1.2078058E-1,2.4825378E-1,1.3778858E-1,-2.9323766E-2,1.5445347E-2,-1.16735116E-1,1.19651735E-1,-6.637926E-2,-8.7555125E-2,5.271071E-2],"categories":[],"categories_nodes":[],"categories_segments":[],"categories_sizes":[],"default_left":[0,0,0,0,0,0,0,0,0,0,0,0,0,0,0,0,0,0,0,0,0,0,0,0,0,0,0,0,0,0,0,0,0,0,0,0,0,0,0,0,0,0,0,0,0,0,0,0,0,0,0,0,0,0,0,0,0,0,0,0,0,0,0,0,0,0,0,0,0,0,0,0,0,0,0,0,0,0,0,0,0,0,0,0,0,0,0,0,0,0,0,0,0,0,0,0,0,0,0,0,0,0,0,0,0,0,0,0,0],"id":2,"left_children":[1,3,5,7,9,11,13,15,17,19,21,23,25,27,-1,29,31,33,35,37,39,41,43,45,47,49,51,53,55,57,59,61,63,65,67,69,71,73,75,77,79,81,83,85,87,89,91,93,-1,95,97,99,101,-1,103,105,107,-1,-1,-1,-1,-1,-1,-1,-1,-1,-1,-1,-1,-1,-1,-1,-1,-1,-1,-1,-1,-1,-1,-1,-1,-1,-1,-1,-1,-1,-1,-1,-1,-1,-1,-1,-1,-1,-1,-1,-1,-1,-1,-1,-1,-1,-1,-1,-1,-1,-1,-1,-1],"loss_changes":[4.2281475E3,3.1912827E3,1.2829175E2,1.6777124E2,2.3450146E2,3.1969055E2,9.488037E0,5.012829E1,9.761264E1,9.284364E1,1.2461621E2,5.9690857E0,2.6924438E1,4.4400696E1,0E0,1.7563425E1,2.6103966E1,1.6923218E1,1.6079021E1,2.9631012E1,5.041829E1,1.2693176E1,7.819116E1,9.1833496E-1,9.780128E0,1.2983208E1,8.18042E0,4.869232E0,1.0012728E1,4.059314E0,1.587343E1,5.239174E0,1.9295126E0,1.6921082E0,7.2625504E0,9.37581E0,3.929718E0,6.992508E0,8.059414E0,1.52256775E1,4.476841E0,1.4648438E-1,1.581682E1,1.7381104E1,8.805475E1,5.89386E-1,3.917904E0,5.3783917E0,0E0,4.7299433E0,8.367277E0,4.239006E0,8.517452E0,0E0,1.3271639E1,5.6869326E0,8.009734E0,0E0,0E0,0E0,0E0,0E0,0E0,0E0,0E0,0E0,0E0,0E0,0E0,0E0,0E0,0E0,0E0,0E0,0E0,0E0,0E0,0E0,0E0,0E0,0E0,0E0,0E0,0E0,0E0,0E0,0E0,0E0,0E0,0E0,0E0,0E0,0E0,0E0,0E0,0E0,0E0,0E0,0E0,0E0,0E0,0E0,0E0,0E0,0E0,0E0,0E0,0E0,0E0],"parents":[2147483647,0,0,1,1,2,2,3,3,4,4,5,5,6,6,7,7,8,8,9,9,10,10,11,11,12,12,13,13,15,15,16,16,17,17,18,18,19,19,20,20,21,21,22,22,23,23,24,24,25,25,26,26,27,27,28,28,29,29,30,30,31,31,32,32,33,33,34,34,35,35,36,36,37,37,38,38,39,39,40,40,41,41,42,42,43,43,44,44,45,45,46,46,47,47,49,49,50,50,51,51,52,52,54,54,55,55,56,56],"right_children":[2,4,6,8,10,12,14,16,18,20,22,24,26,28,-1,30,32,34,36,38,40,42,44,46,48,50,52,54,56,58,60,62,64,66,68,70,72,74,76,78,80,82,84,86,88,90,92,94,-1,96,98,100,102,-1,104,106,108,-1,-1,-1,-1,-1,-1,-1,-1,-1,-1,-1,-1,-1,-1,-1,-1,-1,-1,-1,-1,-1,-1,-1,-1,-1,-1,-1,-1,-1,-1,-1,-1,-1,-1,-1,-1,-1,-1,-1,-1,-1,-1,-1,-1,-1,-1,-1,-1,-1,-1,-1,-1],"split_conditions":[1.5457522E0,-1.6541272E0,1.8354174E0,4.540421E2,4.5921526E0,2.173682E1,2.1475902E0,-9.644536E0,-1.4139123E1,3.186587E3,4.540421E2,1.8797915E1,2.9938745E1,3.485835E1,-1.2475636E-1,-3.4395477E1,1.3342042E0,-2.6548756E1,1.297619E0,5.4141797E2,1.297619E0,1.4102515E0,1.4421254E0,9.478778E3,1.6923044E0,1.6923044E0,1.6580641E0,2.2593016E1,3.288391E1,1.9143544E3,2.437568E3,1.6376703E1,3.832348E1,-2.9404287E1,1.21956095E-1,-4.090909E0,1.8513905E1,1.3450636E0,3.9356515E-1,5.209991E1,-1.5588004E2,1.5697886E1,1.444288E1,-3.4602293E-1,1.3809063E1,6.52823E0,4.559052E1,-1.2114422E2,-1.1222029E-1,2.5389626E1,2.131726E1,3.4782562E1,9.504348E3,-1.21410586E-1,2.1980042E1,5.0332626E1,4.505579E1,2.189612E-2,-7.985729E-2,7.2721116E-2,-5.2566804E-2,2.1209335E-1,4.767821E-2,2.351082E-2,-8.988177E-2,-2.6393993E-2,-9.9459864E-2,1.4504023E-2,-6.821522E-2,-2.311929E-2,1.4643888E-2,4.843941E-2,-7.46013E-2,2.2551146E-1,3.874252E-2,4.262104E-2,1.3109224E-1,8.0155015E-2,-1.30676E-2,7.041286E-2,-7.078276E-2,2.537394E-1,3.1214154E-1,-5.1480285E-3,2.397007E-1,7.837096E-2,1.8271646E-1,-7.040389E-2,1.5669066E-1,-1.1749269E-1,-9.441035E-2,8.802773E-3,-9.643518E-2,1.7713092E-1,-5.559151E-3,1.1793917E-1,-4.0945303E-2,1.1621406E-1,-7.555727E-2,1.2078058E-1,2.4825378E-1,1.3778858E-1,-2.9323766E-2,1.5445347E-2,-1.16735116E-1,1.19651735E-1,-6.637926E-2,-8.7555125E-2,5.271071E-2],"split_indices":[14,1,14,10,1,1,14,1,1,0,10,1,1,1,0,1,14,1,14,10,14,14,14,9,14,14,14,1,11,9,0,7,11,7,5,1,11,14,5,11,3,1,1,14,1,1,11,3,0,4,11,11,9,0,11,1,1,0,0,0,0,0,0,0,0,0,0,0,0,0,0,0,0,0,0,0,0,0,0,0,0,0,0,0,0,0,0,0,0,0,0,0,0,0,0,0,0,0,0,0,0,0,0,0,0,0,0,0,0],"split_type":[0,0,0,0,0,0,0,0,0,0,0,0,0,0,0,0,0,0,0,0,0,0,0,0,0,0,0,0,0,0,0,0,0,0,0,0,0,0,0,0,0,0,0,0,0,0,0,0,0,0,0,0,0,0,0,0,0,0,0,0,0,0,0,0,0,0,0,0,0,0,0,0,0,0,0,0,0,0,0,0,0,0,0,0,0,0,0,0,0,0,0,0,0,0,0,0,0,0,0,0,0,0,0,0,0,0,0,0,0],"sum_hessian":[4.944275E3,2.86793E3,2.076345E3,1.212854E3,1.6550759E3,3.526991E2,1.7236459E3,1.18474686E2,1.0943793E3,2.8566327E2,1.3694127E3,2.7404416E2,7.8654945E1,2.7382904E2,1.4498169E3,8.361841E1,3.4856277E1,6.3806335E2,4.5631592E2,1.0228758E2,1.8337569E2,1.2222571E2,1.247187E3,2.6149658E2,1.254758E1,2.6277172E1,5.2377773E1,2.4860742E2,2.5221615E1,1.9801798E1,6.3816612E1,3.034102E1,4.515255E0,3.4546854E2,2.925948E2,3.944785E2,6.183745E1,4.955753E1,5.2730053E1,1.4715906E2,3.6216633E1,1.122644E2,9.961315E0,1.1763885E3,7.07985E1,2.1968216E2,4.1814415E1,6.0803823E0,6.467198E0,1.429915E1,1.1978021E1,2.2064665E1,3.0313108E1,2.1526746E2,3.333996E1,1.046685E1,1.47547655E1,4.492766E0,1.53090315E1,5.219233E1,1.162428E1,2.7361433E1,2.9795876E0,1.7415519E0,2.773703E0,4.439985E0,3.4102856E2,1.0490951E1,2.8210385E2,3.1235675E2,8.212173E1,1.9591054E0,5.987834E1,4.6847076E1,2.7104545E0,1.6587536E1,3.6142517E1,1.2737626E2,1.9782799E1,1.5461551E0,3.4670475E1,4.2694817E1,6.956958E1,4.087293E0,5.874022E0,1.8633968E1,1.1577545E3,2.6633598E1,4.4164898E1,1.7009975E2,4.9582424E1,3.5232456E0,3.8291172E1,1.3230548E0,4.7573276E0,1.2735952E1,1.5631987E0,1.8894085E0,1.0088613E1,7.555548E0,1.4509117E1,2.7356653E1,2.9564555E0,1.06931E1,2.2646858E1,9.247318E0,1.2195323E0,8.69859E0,6.0561757E0],"tree_param":{"num_deleted":"0","num_feature":"17","num_nodes":"109","size_leaf_vector":"1"}},{"base_weights":[-1.6055916E-2,6.773083E-1,-1.0599866E0,-4.2899492E-1,1.4227179E0,-4.7267938E-1,-1.1715102E0,5.2271056E-1,-5.34598E-1,1.0047654E0,1.6591523E0,-9.1050595E-1,1.3591726E0,-1.2063253E0,-8.998983E-1,9.9103373E-1,-2.039364E-1,-8.1224996E-1,-2.5235882E-1,1.3816088E0,2.8598705E-1,2.0266595E0,1.3220571E0,-1.027153E0,-1.0251493E-1,8.2966715E-1,1.7705942E0,-1.2075754E-1,-2.4563237E-1,2.4264133E-1,-1.1803458E0,1.2279855E0,-6.95478E-1,-4.18281E-1,4.9825618E-1,-9.42657E-1,-6.288235E-1,-1.7441331E-1,-6.6071767E-1,1.6024587E0,-8.4072924E-1,1.6049981E0,1.5875447E-1,2.4164917E0,1.7870318E0,3.434405E-1,1.5562108E0,-1.1944554E0,-7.821187E-1,1.0673276E0,-4.782591E-1,1.6563214E0,4.2235997E-2,2.0862818E0,2.6519027E-1,2.9241238E-2,-6.682902E-2,-7.5060886E-1,9.6354747E-1,-1.1929681E-1,-3.7575832E-1,1.7663062E-1,5.8708806E-2,1.3128045E-2,-1.048165E-1,-4.9305405E-2,6.989701E-2,1.278513E-1,-1.1326224E-2,-6.394354E-2,-9.878792E-2,-5.5421174E-2,-1.0049583E-1,-2.7150339E-2,1.2620215E-2,-9.836799E-2,-2.4496254E-2,8.115371E-2,1.8251745E-1,-9.7055554E-2,9.96264E-2,-1.8040368E-2,1.8098426E-1,4.7525134E-2,-1.8415615E-2,6.217551E-2,2.4353366E-1,1.8386136E-1,7.7060185E-2,-3.226399E-2,9.0178125E-2,5.3261038E-2,1.7110732E-1,-1.8978372E-2,-1.2015169E-1,-3.0814707E-2,-1.05767205E-1,1.8280563E-1,-2.071296E-2,4.955197E-2,-8.378721E-2,6.7316415E-3,1.8795268E-1,7.906141E-2,-3.7198503E-2,-0E0,2.177114E-1,1.15097694E-1,-5.2499034E-2,-1.0736754E-1,7.122596E-2,2.0787476E-1,6.2054563E-3,-7.6712325E-2,3.2538675E-2],"categories":[],"categories_nodes":[],"categories_segments":[],"categories_sizes":[],"default_left":[0,0,0,0,0,0,0,0,0,0,0,0,0,0,0,0,0,0,0,0,0,0,0,0,0,0,0,0,0,0,0,0,0,0,0,0,0,0,0,0,0,0,0,0,0,0,0,0,0,0,0,0,0,0,0,0,0,0,0,0,0,0,0,0,0,0,0,0,0,0,0,0,0,0,0,0,0,0,0,0,0,0,0,0,0,0,0,0,0,0,0,0,0,0,0,0,0,0,0,0,0,0,0,0,0,0,0,0,0,0,0,0,0,0,0],"id":3,"left_children":[1,3,5,7,9,11,13,15,17,19,21,23,25,27,29,31,33,35,37,39,41,43,45,47,49,51,53,-1,55,57,59,61,63,65,67,69,71,73,75,77,79,81,83,85,87,89,91,93,95,97,99,101,103,105,107,-1,-1,109,111,-1,113,-1,-1,-1,-1,-1,-1,-1,-1,-1,-1,-1,-1,-1,-1,-1,-1,-1,-1,-1,-1,-1,-1,-1,-1,-1,-1,-1,-1,-1,-1,-1,-1,-1,-1,-1,-1,-1,-1,-1,-1,-1,-1,-1,-1,-1,-1,-1,-1,-1,-1,-1,-1,-1,-1],"loss_changes":[3.524387E3,2.413428E3,1.26566895E2,1.18721405E2,1.7082788E2,2.5138455E2,1.4139893E1,4.0476555E1,8.286151E1,1.712627E2,1.3510767E2,2.3571747E1,1.1457962E1,1.2922363E0,6.117299E1,2.9711884E1,7.280002E0,1.2032959E1,1.660617E1,2.0550482E2,3.641224E1,4.4900146E1,1.3322089E2,7.9014435E0,1.4984421E1,1.8283098E1,1.4930794E1,0E0,9.6880126E-1,2.8062418E1,9.44397E-1,2.0674942E1,2.9894347E0,3.3890853E0,5.6756926E0,3.456665E0,5.6122513E0,1.3034128E1,1.0922947E1,6.494745E1,1.0075117E1,7.4876785E0,2.1975113E1,4.920532E0,1.5785767E1,4.2829014E1,7.357593E1,5.466461E-1,1.1624363E1,8.570667E0,9.477074E0,4.571209E0,5.1910324E0,4.9308167E0,5.520435E0,0E0,0E0,8.62186E0,2.238035E1,0E0,1.3746111E0,0E0,0E0,0E0,0E0,0E0,0E0,0E0,0E0,0E0,0E0,0E0,0E0,0E0,0E0,0E0,0E0,0E0,0E0,0E0,0E0,0E0,0E0,0E0,0E0,0E0,0E0,0E0,0E0,0E0,0E0,0E0,0E0,0E0,0E0,0E0,0E0,0E0,0E0,0E0,0E0,0E0,0E0,0E0,0E0,0E0,0E0,0E0,0E0,0E0,0E0,0E0,0E0,0E0,0E0],"parents":[2147483647,0,0,1,1,2,2,3,3,4,4,5,5,6,6,7,7,8,8,9,9,10,10,11,11,12,12,13,13,14,14,15,15,16,16,17,17,18,18,19,19,20,20,21,21,22,22,23,23,24,24,25,25,26,26,28,28,29,29,30,30,31,31,32,32,33,33,34,34,35,35,36,36,37,37,38,38,39,39,40,40,41,41,42,42,43,43,44,44,45,45,46,46,47,47,48,48,49,49,50,50,51,51,52,52,53,53,54,54,57,57,58,58,60,60],"right_children":[2,4,6,8,10,12,14,16,18,20,22,24,26,28,30,32,34,36,38,40,42,44,46,48,50,52,54,-1,56,58,60,62,64,66,68,70,72,74,76,78,80,82,84,86,88,90,92,94,96,98,100,102,104,106,108,-1,-1,110,112,-1,114,-1,-1,-1,-1,-1,-1,-1,-1,-1,-1,-1,-1,-1,-1,-1,-1,-1,-1,-1,-1,-1,-1,-1,-1,-1,-1,-1,-1,-1,-1,-1,-1,-1,-1,-1,-1,-1,-1,-1,-1,-1,-1,-1,-1,-1,-1,-1,-1,-1,-1,-1,-1,-1,-1],"split_conditions":[1.5457522E0,-1.6541272E0,1.8045411E0,3.6091116E3,2.7808508E-1,2.726838E1,3.2096848E1,5.135346E-1,-1.6946787E1,2.4688013E1,3.7437126E1,1.7791718E1,1.0096223E0,9.416451E3,2.1475902E0,1.3342042E0,2.0272434E1,-2.7401955E1,1.2480367E0,1.3838212E0,3.6210713E3,6.391077E3,2.2593016E1,3.2063972E1,3.1886265E1,1.6453449E0,1.8354579E0,-1.2075754E-1,1.51627865E1,1.2214401E0,2.7045922E0,1.9912102E0,3.883447E1,1.09671684E2,7.2338647E-1,-2.3413843E1,1.3099796E0,-4.7353764E0,2.1870914E1,4.9404103E-2,1.2041806E1,9.342612E1,3.824734E1,5.655261E0,1.4565468E0,3.6120396E1,2.1497332E1,1.826311E1,4.3100262E-1,3.8038673E1,1.6145701E0,3.4457508E1,7.8161556E-1,-2.7561546E1,5.0072857E1,2.9241238E-2,-6.682902E-2,5.484521E1,4.754875E1,-1.1929681E-1,8.997755E0,1.7663062E-1,5.8708806E-2,1.3128045E-2,-1.048165E-1,-4.9305405E-2,6.989701E-2,1.278513E-1,-1.1326224E-2,-6.394354E-2,-9.878792E-2,-5.5421174E-2,-1.0049583E-1,-2.7150339E-2,1.2620215E-2,-9.836799E-2,-2.4496254E-2,8.115371E-2,1.8251745E-1,-9.7055554E-2,9.96264E-2,-1.8040368E-2,1.8098426E-1,4.7525134E-2,-1.8415615E-2,6.217551E-2,2.4353366E-1,1.8386136E-1,7.7060185E-2,-3.226399E-2,9.0178125E-2,5.3261038E-2,1.7110732E-1,-1.8978372E-2,-1.2015169E-1,-3.0814707E-2,-1.05767205E-1,1.8280563E-1,-2.071296E-2,4.955197E-2,-8.378721E-2,6.7316415E-3,1.8795268E-1,7.906141E-2,-3.7198503E-2,-0E0,2.177114E-1,1.15097694E-1,-5.2499034E-2,-1.0736754E-1,7.122596E-2,2.0787476E-1,6.2054563E-3,-7.6712325E-2,3.2538675E-2],"split_indices":[14,1,14,9,15,1,1,15,1,2,2,1,15,9,14,14,4,1,14,14,9,9,1,2,11,14,15,0,12,15,15,12,11,10,14,7,14,1,2,15,1,10,2,1,14,11,11,11,15,2,14,11,15,7,2,0,0,2,2,0,7,0,0,0,0,0,0,0,0,0,0,0,0,0,0,0,0,0,0,0,0,0,0,0,0,0,0,0,0,0,0,0,0,0,0,0,0,0,0,0,0,0,0,0,0,0,0,0,0,0,0,0,0,0,0],"split_type":[0,0,0,0,0,0,0,0,0,0,0,0,0,0,0,0,0,0,0,0,0,0,0,0,0,0,0,0,0,0,0,0,0,0,0,0,0,0,0,0,0,0,0,0,0,0,0,0,0,0,0,0,0,0,0,0,0,0,0,0,0,0,0,0,0,0,0,0,0,0,0,0,0,0,0,0,0,0,0,0,0,0,0,0,0,0,0,0,0,0,0,0,0,0,0,0,0,0,0,0,0,0,0,0,0,0,0,0,0,0,0,0,0,0,0],"sum_hessian":[4.8670757E3,2.9247515E3,1.9423239E3,1.1774797E3,1.7472719E3,3.1094693E2,1.631377E3,1.17116585E2,1.0603632E3,6.333507E2,1.1139211E3,2.514145E2,5.9532433E1,1.4426498E3,1.8872717E2,7.107962E1,4.603696E1,5.3340015E2,5.2696295E2,4.14811E2,2.1853973E2,5.3038116E2,5.8354E2,2.1935231E2,3.2062195E1,2.7455927E1,3.2076508E1,1.4404142E3,2.2355697E0,3.7151325E1,1.5157584E2,6.261369E1,8.465935E0,3.568947E1,1.0347493E1,3.090189E2,2.2438126E2,4.4390463E2,8.3058334E1,3.7760916E2,3.7201843E1,1.8134987E1,2.0040475E2,1.9829256E2,3.3208862E2,1.1322472E2,4.7031525E2,1.2780677E2,9.154554E1,7.2824116E0,2.4779783E1,1.2794095E1,1.4661832E1,2.6142134E1,5.934371E0,1.0150139E0,1.2205557E0,1.5548707E1,2.160262E1,1.4863702E2,2.9388175E0,3.2990967E1,2.9622723E1,2.634485E0,5.83145E0,3.4058285E1,1.6311859E0,4.1390934E0,6.2084E0,4.2357365E1,2.6666153E2,1.8952544E2,3.4855812E1,3.358608E2,1.08043816E2,4.5841625E1,3.7216713E1,8.4087074E1,2.9352206E2,3.5237587E1,1.9642575E0,1.8285648E0,1.6306421E1,1.0416712E2,9.6237625E1,2.468818E0,1.9582373E2,3.151863E2,1.690233E1,5.174173E1,6.1482983E1,6.247261E1,4.0784265E2,1.1854367E0,1.2662133E2,3.4567738E1,5.6977802E1,4.3374534E0,2.9449584E0,6.506134E0,1.827365E1,1.791311E0,1.1002784E1,4.986109E0,9.675723E0,1.1772687E0,2.4964867E1,2.6423123E0,3.292059E0,1.300994E1,2.5387673E0,9.023363E0,1.2579255E1,1.9171993E0,1.0216184E0],"tree_param":{"num_deleted":"0","num_feature":"17","num_nodes":"115","size_leaf_vector":"1"}},{"base_weights":[-1.6583567E-2,6.059281E-1,-1.0241491E0,-4.2754555E-1,1.222416E0,-5.1298594E-1,-1.156417E0,4.9834847E-1,-5.324061E-1,6.1578065E-1,1.3569963E0,-1.0138934E0,6.736516E-1,-9.181073E-1,-1.1861739E-1,1.6784863E-1,1.2834945E0,-7.804381E-1,-2.7808988E-1,7.781129E-1,-4.9769238E-1,1.981853E0,1.2719573E0,-0E0,-1.0294949E0,-1.11024E-2,9.9523574E-1,-1.0902723E0,2.0594467E-1,-2.671033E-1,5.503639E-1,1.518036E0,-3.5868794E-1,-1.09440066E-1,-6.984843E-1,-2.1095325E-1,-6.610616E-1,1.411808E0,5.3856516E-1,2.6392113E-2,-6.822592E-1,2.1481712E0,1.4030985E0,1.3421903E0,9.133018E-1,-6.499045E-1,1.2749897E-1,-1.0364019E0,3.0295828E-2,6.2701535E-1,-7.9615235E-1,-1.6565887E-3,1.1104486E0,-1.1606158E-1,-5.755275E-1,6.682899E-1,-6.0036594E-1,-5.8666676E-2,2.3617052E-2,-8.220381E-2,7.417342E-2,2.0216714E-1,7.34577E-2,5.4371446E-2,-8.521095E-2,-6.664581E-2,-9.387823E-2,8.216712E-3,-2.739656E-2,-1.3267539E-2,-7.531751E-2,1.6121845E-1,6.535732E-2,3.6685005E-2,8.863705E-2,-2.4323013E-2,1.24449134E-1,-3.682267E-2,-1.1124092E-1,8.6871855E-2,2.1676628E-1,1.5723243E-1,3.3514187E-2,4.235467E-2,1.3593315E-1,1.4521156E-2,1.1161079E-1,-7.897307E-2,-6.5035424E-3,-3.0861134E-3,-1.04282334E-1,-1.8165154E-2,9.142538E-2,6.099509E-2,-1.1062994E-1,-9.987595E-2,5.6779344E-2,7.032243E-2,1.4645354E-1,6.7855395E-2,-1.1484195E-1,1.08990744E-1,-2.8628184E-2,-8.2984306E-2,1.25363115E-2],"categories":[],"categories_nodes":[],"categories_segments":[],"categories_sizes":[],"default_left":[0,0,0,0,0,0,0,0,0,0,0,0,0,0,0,0,0,0,0,0,0,0,0,0,0,0,0,0,0,0,0,0,0,0,0,0,0,0,0,0,0,0,0,0,0,0,0,0,0,0,0,0,0,0,0,0,0,0,0,0,0,0,0,0,0,0,0,0,0,0,0,0,0,0,0,0,0,0,0,0,0,0,0,0,0,0,0,0,0,0,0,0,0,0,0,0,0,0,0,0,0,0,0,0,0],"id":4,"left_children":[1,3,5,7,9,11,13,15,17,19,21,23,25,27,-1,29,31,33,35,37,39,41,43,45,47,49,51,53,55,57,59,61,63,-1,65,67,69,71,73,75,77,79,81,83,85,87,-1,89,-1,91,93,95,97,-1,99,101,103,-1,-1,-1,-1,-1,-1,-1,-1,-1,-1,-1,-1,-1,-1,-1,-1,-1,-1,-1,-1,-1,-1,-1,-1,-1,-1,-1,-1,-1,-1,-1,-1,-1,-1,-1,-1,-1,-1,-1,-1,-1,-1,-1,-1,-1,-1,-1,-1],"loss_changes":[2.9875625E3,1.8763422E3,1.2222595E2,1.0713513E2,1.4954395E2,2.2414246E2,8.941528E0,2.8804998E1,6.2080902E1,6.1300613E1,7.731299E1,4.116913E0,2.479776E1,3.2264954E1,0E0,1.35418625E1,1.33923E1,1.1923676E1,1.2377487E1,4.374254E1,4.280758E0,1.3839294E1,3.2069824E1,4.994523E0,2.7865295E0,1.8909544E1,8.88736E0,4.3512726E0,8.868094E0,6.3082123E0,1.1946431E1,9.748856E0,2.670035E0,0E0,2.2889862E0,7.776781E0,3.33667E0,1.0880844E1,1.2414505E1,4.3842697E0,3.8011637E0,1.2261963E0,7.039856E0,1.6731934E1,3.4181625E1,1.9543827E-1,0E0,1.5370178E0,0E0,5.0575075E0,8.126704E0,5.620065E0,8.641281E0,0E0,1.4761932E1,6.419425E0,1.6264231E0,0E0,0E0,0E0,0E0,0E0,0E0,0E0,0E0,0E0,0E0,0E0,0E0,0E0,0E0,0E0,0E0,0E0,0E0,0E0,0E0,0E0,0E0,0E0,0E0,0E0,0E0,0E0,0E0,0E0,0E0,0E0,0E0,0E0,0E0,0E0,0E0,0E0,0E0,0E0,0E0,0E0,0E0,0E0,0E0,0E0,0E0,0E0,0E0],"parents":[2147483647,0,0,1,1,2,2,3,3,4,4,5,5,6,6,7,7,8,8,9,9,10,10,11,11,12,12,13,13,15,15,16,16,17,17,18,18,19,19,20,20,21,21,22,22,23,23,24,24,25,25,26,26,27,27,28,28,29,29,30,30,31,31,32,32,34,34,35,35,36,36,37,37,38,38,39,39,40,40,41,41,42,42,43,43,44,44,45,45,47,47,49,49,50,50,51,51,52,52,54,54,55,55,56,56],"right_children":[2,4,6,8,10,12,14,16,18,20,22,24,26,28,-1,30,32,34,36,38,40,42,44,46,48,50,52,54,56,58,60,62,64,-1,66,68,70,72,74,76,78,80,82,84,86,88,-1,90,-1,92,94,96,98,-1,100,102,104,-1,-1,-1,-1,-1,-1,-1,-1,-1,-1,-1,-1,-1,-1,-1,-1,-1,-1,-1,-1,-1,-1,-1,-1,-1,-1,-1,-1,-1,-1,-1,-1,-1,-1,-1,-1,-1,-1,-1,-1,-1,-1,-1,-1,-1,-1,-1,-1],"split_conditions":[1.534656E0,-2.428101E0,1.8723552E0,3.6091116E3,4.5921526E0,1.8797915E1,2.0825388E0,-9.644536E0,-1.6946787E1,1.297619E0,4.6655624E2,1.826311E1,2.726838E1,3.371214E1,-1.1861739E-1,5.1866406E-1,1.3594464E0,-4.1844322E1,1.2480367E0,5.472624E0,9.1158246E2,2.667478E3,1.2368532E0,3.9384608E0,1.6450867E1,1.6923044E0,2.0002338E1,2.2593016E1,1.3326652E1,-1.8681473E1,-4.039488E1,1.9912102E0,3.883447E1,-1.09440066E-1,1.5762613E1,5.384817E2,2.1128431E1,3.4197703E3,2.4319882E0,5.413206E0,1.4195657E0,-2.9042757E1,2.2726974E1,-3.4602293E-1,1.0391758E1,6.619146E-1,1.2749897E-1,2.895252E3,3.0295828E-2,1.2455678E0,2.1379564E1,-8.575588E0,3.747837E1,-1.1606158E-1,2.1929575E1,3.624642E1,2.6337551E1,-5.8666676E-2,2.3617052E-2,-8.220381E-2,7.417342E-2,2.0216714E-1,7.34577E-2,5.4371446E-2,-8.521095E-2,-6.664581E-2,-9.387823E-2,8.216712E-3,-2.739656E-2,-1.3267539E-2,-7.531751E-2,1.6121845E-1,6.535732E-2,3.6685005E-2,8.863705E-2,-2.4323013E-2,1.24449134E-1,-3.682267E-2,-1.1124092E-1,8.6871855E-2,2.1676628E-1,1.5723243E-1,3.3514187E-2,4.235467E-2,1.3593315E-1,1.4521156E-2,1.1161079E-1,-7.897307E-2,-6.5035424E-3,-3.0861134E-3,-1.04282334E-1,-1.8165154E-2,9.142538E-2,6.099509E-2,-1.1062994E-1,-9.987595E-2,5.6779344E-2,7.032243E-2,1.4645354E-1,6.7855395E-2,-1.1484195E-1,1.08990744E-1,-2.8628184E-2,-8.2984306E-2,1.25363115E-2],"split_indices":[14,1,14,9,1,1,14,1,1,14,10,11,1,1,0,5,14,1,14,12,10,0,14,1,12,14,11,1,4,1,1,12,11,0,12,10,11,0,1,12,14,7,4,14,1,5,0,0,0,4,11,7,1,0,11,11,4,0,0,0,0,0,0,0,0,0,0,0,0,0,0,0,0,0,0,0,0,0,0,0,0,0,0,0,0,0,0,0,0,0,0,0,0,0,0,0,0,0,0,0,0,0,0,0,0],"split_type":[0,0,0,0,0,0,0,0,0,0,0,0,0,0,0,0,0,0,0,0,0,0,0,0,0,0,0,0,0,0,0,0,0,0,0,0,0,0,0,0,0,0,0,0,0,0,0,0,0,0,0,0,0,0,0,0,0,0,0,0,0,0,0,0,0,0,0,0,0,0,0,0,0,0,0,0,0,0,0,0,0,0,0,0,0,0,0,0,0,0,0,0,0,0,0,0,0,0,0,0,0,0,0,0,0],"sum_hessian":[4.7611147E3,2.9430735E3,1.8180415E3,1.0996971E3,1.8433762E3,3.7488675E2,1.4431548E3,1.11395454E2,9.883017E2,3.3584338E2,1.5075328E3,2.637722E2,1.11114555E2,1.6410739E2,1.2790474E3,7.933942E1,3.2056038E1,4.9908612E2,4.892156E2,2.9345224E2,4.239115E1,1.7777568E2,1.3297572E3,4.0797687E0,2.596924E2,3.5716785E1,7.539777E1,1.4241367E2,2.169373E1,3.7143936E1,4.219548E1,2.8169304E1,3.886735E0,1.0049991E2,3.985862E2,4.1778757E2,7.142805E1,7.904281E1,2.1440942E2,1.1122785E1,3.1268368E1,1.3585123E2,4.1924446E1,1.1094752E3,2.2028189E2,3.063039E0,1.0167297E0,2.586489E2,1.043513E0,1.9742926E1,1.5973859E1,7.823313E0,6.757446E1,1.24016884E2,1.8396788E1,1.3975347E1,7.718383E0,2.2738613E1,1.4405324E1,4.6965227E0,3.749896E1,1.6107044E1,1.206226E1,1.2662814E0,2.6204536E0,3.55408E2,4.3178196E1,7.358666E1,3.442009E2,1.1126965E1,6.0301083E1,6.152552E1,1.7517288E1,1.4510959E2,6.9299835E1,9.695044E0,1.4277409E0,1.9280842E1,1.1987527E1,2.7993312E0,1.330519E2,3.570138E1,6.2230625E0,2.0900455E1,1.0885748E3,4.6475124E1,1.7380676E2,2.051366E0,1.0116731E0,1.7769276E0,2.5687198E2,5.1797495E0,1.4563176E1,2.6537166E0,1.3320142E1,2.6336014E0,5.1897116E0,3.294913E1,3.4625328E1,5.6561904E0,1.2740598E1,9.668099E0,4.3072467E0,5.859825E0,1.8585579E0],"tree_param":{"num_deleted":"0","num_feature":"17","num_nodes":"105","size_leaf_vector":"1"}},{"base_weights":[-1.3383426E-2,5.479393E-1,-1.015781E0,-3.0322868E-1,1.1264064E0,-5.2130324E-1,-1.1355305E0,-6.494713E-1,-2.5379496E-2,1.2824287E0,7.6631117E-1,-9.7603345E-1,7.4057275E-1,-9.2712903E-1,-1.17068626E-1,1.2798586E-1,-7.3454404E-1,5.471702E-1,-1.9957748E-1,1.0099925E0,1.548452E0,2.404448E-2,1.1396432E0,-1.0443594E0,-5.324646E-1,1.6257383E-1,1.0725137E0,-1.0927805E0,1.18461125E-1,-9.786321E-2,7.3793036E-1,-8.6200905E-1,-5.641616E-1,6.9401586E-1,-7.2879386E-1,-1.5300895E-1,-7.379705E-1,1.3201237E0,4.2531085E-1,1.8830887E0,1.430127E0,1.2345738E0,-1.0842165E-1,-3.1862274E-1,1.2807945E0,-1.1577801E-1,-8.5199535E-1,1.157423E0,-6.931985E-1,1.2766953E0,-1.4607131E-1,1.7115995E0,7.747973E-1,-8.991311E-1,-1.1659863E0,7.7477074E-1,-4.8866302E-1,-6.809076E-2,1.1425589E-2,-6.976451E-2,9.412607E-2,-1.003963E-1,-7.829581E-2,-3.7927963E-2,-6.8734825E-2,1.3237904E-1,4.517746E-2,3.5778694E-2,-8.732335E-2,-2.2880053E-2,1.6343731E-2,-1.0527935E-1,-2.212534E-3,1.4673974E-1,-6.3821636E-2,6.2852554E-2,-1.10653555E-2,1.573125E-1,2.0016508E-1,1.4680839E-1,7.5380675E-2,2.2401835E-3,1.5683493E-1,-6.3009545E-2,-9.6539466E-4,4.7595467E-2,-7.888689E-2,2.0788334E-1,1.18331455E-1,-1.06748104E-1,-5.043857E-2,1.4523906E-1,2.4522169E-2,2.1914447E-2,-9.0121314E-2,1.4529826E-1,2.9726923E-2,-4.3398786E-2,8.801058E-2,9.748149E-3,1.8095173E-1,8.404018E-2,-4.8024073E-2,-1.0170617E-1,-9.256689E-3,-1.1741038E-1,-1.3758572E-2,1.7007005E-1,-5.0508942E-2,-9.8070316E-2,6.547522E-2],"categories":[],"categories_nodes":[],"categories_segments":[],"categories_sizes":[],"default_left":[0,0,0,0,0,0,0,0,0,0,0,0,0,0,0,0,0,0,0,0,0,0,0,0,0,0,0,0,0,0,0,0,0,0,0,0,0,0,0,0,0,0,0,0,0,0,0,0,0,0,0,0,0,0,0,0,0,0,0,0,0,0,0,0,0,0,0,0,0,0,0,0,0,0,0,0,0,0,0,0,0,0,0,0,0,0,0,0,0,0,0,0,0,0,0,0,0,0,0,0,0,0,0,0,0,0,0,0,0,0,0],"id":5,"left_children":[1,3,5,7,9,11,13,15,17,19,21,23,25,27,-1,29,31,33,35,37,39,41,43,45,47,49,51,53,55,57,59,61,63,65,67,69,71,73,75,77,79,81,83,85,87,-1,89,91,93,95,97,99,101,103,105,107,109,-1,-1,-1,-1,-1,-1,-1,-1,-1,-1,-1,-1,-1,-1,-1,-1,-1,-1,-1,-1,-1,-1,-1,-1,-1,-1,-1,-1,-1,-1,-1,-1,-1,-1,-1,-1,-1,-1,-1,-1,-1,-1,-1,-1,-1,-1,-1,-1,-1,-1,-1,-1,-1,-1],"loss_changes":[2.6286963E3,1.4749343E3,9.8546875E1,1.1655787E2,9.900073E1,1.8951395E2,8.589111E0,3.5843307E1,6.728349E1,8.8229614E1,1.4998312E2,6.630142E0,1.6519722E1,3.485875E1,0E0,7.568989E0,9.939697E0,2.9981014E1,1.2773674E1,1.111272E2,2.1785889E1,2.949637E1,7.467676E1,3.3668365E0,1.0148327E1,1.1738174E1,8.964123E0,1.1945496E0,1.1629883E1,5.0986977E0,5.00601E0,2.1340485E0,4.4492493E0,2.0837791E1,2.9779234E0,1.1502636E1,9.056898E0,1.1710809E2,2.3581882E1,2.3847656E0,1.0666809E1,7.147934E0,8.444943E0,1.2565047E1,2.2792725E1,0E0,5.4119225E0,3.68433E-1,6.387102E0,6.688595E-1,8.277777E0,2.267498E0,3.7100887E0,4.754715E0,7.227783E-1,1.7569653E1,9.206532E0,0E0,0E0,0E0,0E0,0E0,0E0,0E0,0E0,0E0,0E0,0E0,0E0,0E0,0E0,0E0,0E0,0E0,0E0,0E0,0E0,0E0,0E0,0E0,0E0,0E0,0E0,0E0,0E0,0E0,0E0,0E0,0E0,0E0,0E0,0E0,0E0,0E0,0E0,0E0,0E0,0E0,0E0,0E0,0E0,0E0,0E0,0E0,0E0,0E0,0E0,0E0,0E0,0E0,0E0],"parents":[2147483647,0,0,1,1,2,2,3,3,4,4,5,5,6,6,7,7,8,8,9,9,10,10,11,11,12,12,13,13,15,15,16,16,17,17,18,18,19,19,20,20,21,21,22,22,23,23,24,24,25,25,26,26,27,27,28,28,29,29,30,30,31,31,32,32,33,33,34,34,35,35,36,36,37,37,38,38,39,39,40,40,41,41,42,42,43,43,44,44,46,46,47,47,48,48,49,49,50,50,51,51,52,52,53,53,54,54,55,55,56,56],"right_children":[2,4,6,8,10,12,14,16,18,20,22,24,26,28,-1,30,32,34,36,38,40,42,44,46,48,50,52,54,56,58,60,62,64,66,68,70,72,74,76,78,80,82,84,86,88,-1,90,92,94,96,98,100,102,104,106,108,110,-1,-1,-1,-1,-1,-1,-1,-1,-1,-1,-1,-1,-1,-1,-1,-1,-1,-1,-1,-1,-1,-1,-1,-1,-1,-1,-1,-1,-1,-1,-1,-1,-1,-1,-1,-1,-1,-1,-1,-1,-1,-1,-1,-1,-1,-1,-1,-1,-1,-1,-1,-1,-1,-1],"split_conditions":[1.5589943E0,5.049812E-1,1.8723552E0,-1.6946787E1,4.3065205E1,2.173682E1,2.1475902E0,4.5130916E0,4.1133525E3,1.3192291E1,2.6729376E1,1.2895515E1,3.0955242E1,3.2096848E1,-1.17068626E-1,7.776104E-1,-2.7401955E1,1.3594464E0,1.3959144E0,2.0038218E1,5.442202E0,2.1672268E3,2.0764088E1,3.4545006E1,1.931602E1,3.1886265E1,1.6453449E0,2.1929575E1,3.288391E1,3.814217E1,1.8455354E0,-4.1844322E1,4.5712626E-1,1.9912102E0,1.8513905E1,-2.428101E0,2.9492943E1,1.4195657E0,3.4117203E1,1.9822138E1,1.4421254E0,1.8821002E3,2.2902471E-1,5.504947E-1,3.6825603E3,-1.1577801E-1,-1.6294886E1,6.9353666E0,-1.2114422E2,4.2868374E3,5.0807026E1,1.70965E-1,1.6279339E1,2.2593016E1,5.9159122E1,4.754875E1,5.242399E1,-6.809076E-2,1.1425589E-2,-6.976451E-2,9.412607E-2,-1.003963E-1,-7.829581E-2,-3.7927963E-2,-6.8734825E-2,1.3237904E-1,4.517746E-2,3.5778694E-2,-8.732335E-2,-2.2880053E-2,1.6343731E-2,-1.0527935E-1,-2.212534E-3,1.4673974E-1,-6.3821636E-2,6.2852554E-2,-1.10653555E-2,1.573125E-1,2.0016508E-1,1.4680839E-1,7.5380675E-2,2.2401835E-3,1.5683493E-1,-6.3009545E-2,-9.6539466E-4,4.7595467E-2,-7.888689E-2,2.0788334E-1,1.18331455E-1,-1.06748104E-1,-5.043857E-2,1.4523906E-1,2.4522169E-2,2.1914447E-2,-9.0121314E-2,1.4529826E-1,2.9726923E-2,-4.3398786E-2,8.801058E-2,9.748149E-3,1.8095173E-1,8.404018E-2,-4.8024073E-2,-1.0170617E-1,-9.256689E-3,-1.1741038E-1,-1.3758572E-2,1.7007005E-1,-5.0508942E-2,-9.8070316E-2,6.547522E-2],"split_indices":[14,1,14,1,2,1,14,12,9,1,1,1,1,1,0,5,1,14,14,2,12,9,11,2,11,11,14,11,11,11,12,1,5,12,11,1,2,14,2,11,14,9,5,14,9,0,1,4,3,9,11,5,12,1,2,2,2,0,0,0,0,0,0,0,0,0,0,0,0,0,0,0,0,0,0,0,0,0,0,0,0,0,0,0,0,0,0,0,0,0,0,0,0,0,0,0,0,0,0,0,0,0,0,0,0,0,0,0,0,0,0],"split_type":[0,0,0,0,0,0,0,0,0,0,0,0,0,0,0,0,0,0,0,0,0,0,0,0,0,0,0,0,0,0,0,0,0,0,0,0,0,0,0,0,0,0,0,0,0,0,0,0,0,0,0,0,0,0,0,0,0,0,0,0,0,0,0,0,0,0,0,0,0,0,0,0,0,0,0,0,0,0,0,0,0,0,0,0,0,0,0,0,0,0,0,0,0,0,0,0,0,0,0,0,0,0,0,0,0,0,0,0,0,0,0],"sum_hessian":[4.6697656E3,2.993704E3,1.6760613E3,1.2114523E3,1.782252E3,3.279705E2,1.3480908E3,5.385896E2,6.728626E2,1.2414966E3,5.407554E2,2.4131563E2,8.665485E1,1.9894914E2,1.1491416E3,5.2956264E1,4.8563336E2,1.5632903E2,5.1653357E2,6.159109E2,6.2558563E2,1.8140813E2,3.5934723E2,2.0773663E2,3.3579002E1,3.2264557E1,5.439029E1,1.7178413E2,2.7165012E1,3.9139404E1,1.3816859E1,2.7514673E2,2.1048663E2,1.4067389E2,1.5655141E1,4.7676547E2,3.97681E1,4.015101E2,2.1440083E2,1.5930194E2,4.662837E2,1.7146986E1,1.6426114E2,3.153951E1,3.278077E2,1.2719948E2,8.053715E1,2.3238652E0,3.1255138E1,6.389136E0,2.5875422E1,1.5669263E1,3.8721027E1,5.114362E1,1.2064052E2,1.3000197E1,1.4164814E1,9.977102E0,2.9162302E1,1.3515553E0,1.2465303E1,9.377935E1,1.8136737E2,8.612238E1,1.2436424E2,3.7723473E1,1.0295042E2,1.5823255E0,1.4072815E1,3.8511917E2,9.1646324E1,2.719678E1,1.25713215E1,3.737078E2,2.7802301E1,1.5546796E2,5.8932873E1,4.8255848E1,1.110461E2,4.4025684E2,2.6026863E1,3.9971733E0,1.3149814E1,2.5131088E1,1.3913005E2,1.1642434E1,1.9897076E1,3.3358643E1,2.9444907E2,4.826114E1,3.227601E1,1.2257141E0,1.098151E0,5.703889E0,2.555125E1,4.918287E0,1.4708493E0,2.0732887E1,5.142535E0,1.068727E0,1.4600536E1,3.71872E1,1.5338262E0,4.4283775E1,6.859845E0,1.1945867E2,1.1818413E0,7.3976192E0,5.602578E0,1.0063849E1,4.100965E0],"tree_param":{"num_deleted":"0","num_feature":"17","num_nodes":"111","size_leaf_vector":"1"}},{"base_weights":[-2.2377307E-2,4.953164E-1,-9.653214E-1,5.8769625E-1,1.257675E-1,-4.737069E-1,-1.1145476E0,8.827211E-1,4.772432E-1,-7.0197344E-1,2.9295385E-1,-8.3055454E-1,2.642297E-2,-8.710658E-1,-1.14511825E-1,1.0234743E0,5.447394E-1,5.240883E-1,-1.3425682E-1,-2.4818465E-1,-9.796159E-1,1.1114306E0,2.0621157E-1,-1.1090077E0,-4.4797084E-1,2.8344688E-1,-1.6875097E-1,-1.0738204E0,5.0281775E-3,1.0770711E0,1.1905705E-1,-3.3208075E-1,8.1961256E-1,3.3585852E-1,5.6932837E-1,-1.0593415E0,1.1157047E-1,-5.083226E-1,6.3199925E-1,-7.786269E-2,-1.0561987E0,1.4007326E0,7.281502E-1,-1.011346E-1,3.968162E-1,-6.799285E-1,-1.1287112E0,9.9196754E-2,-6.749917E-1,-2.330716E-1,4.7723797E-1,-6.917684E-1,2.95468E-1,-1.0810277E0,-1.790397E-2,5.5812585E-1,-3.6985397E-1,1.3909756E-1,9.993123E-2,-8.395409E-2,8.9049704E-2,-7.568482E-2,1.330864E-2,1.0573715E-1,2.1277044E-2,6.3352846E-2,1.3629394E-3,6.9213904E-2,5.0195515E-2,-1.1638353E-1,5.54979E-3,-5.727137E-2,3.1100675E-2,-1.38757825E-2,-9.57843E-2,-2.0675873E-2,1.2943392E-1,8.7760575E-2,-9.120352E-2,1.9939754E-2,-1.1045551E-1,5.1681507E-2,1.597849E-1,-2.054409E-2,8.761083E-2,1.0744075E-2,-4.465433E-2,-1.1302724E-1,4.1834798E-2,-9.8929144E-2,5.3261123E-3,-1.1355412E-1,-2.4716904E-2,3.234316E-2,-5.8805056E-2,-9.288763E-2,-2.7560333E-2,4.6904355E-2,-6.1238624E-2,1.0324176E-1,3.0409604E-2,-8.861652E-2,1.3883613E-2,5.2562274E-2,-7.317929E-2,-8.500333E-2,-1.14551306E-1,1.02899615E-2,1.0808327E-1,-9.164364E-2,3.9987188E-2],"categories":[],"categories_nodes":[],"categories_segments":[],"categories_sizes":[],"default_left":[0,0,0,0,0,0,0,0,0,0,0,0,0,0,0,0,0,0,0,0,0,0,0,0,0,0,0,0,0,0,0,0,0,0,0,0,0,0,0,0,0,0,0,0,0,0,0,0,0,0,0,0,0,0,0,0,0,0,0,0,0,0,0,0,0,0,0,0,0,0,0,0,0,0,0,0,0,0,0,0,0,0,0,0,0,0,0,0,0,0,0,0,0,0,0,0,0,0,0,0,0,0,0,0,0,0,0,0,0,0,0],"id":6,"left_children":[1,3,5,7,9,11,13,15,17,19,21,23,25,27,-1,29,31,33,35,37,39,41,43,45,47,49,51,53,55,57,59,61,63,65,67,69,71,73,75,77,79,81,83,85,87,89,91,93,95,97,99,101,103,105,-1,107,109,-1,-1,-1,-1,-1,-1,-1,-1,-1,-1,-1,-1,-1,-1,-1,-1,-1,-1,-1,-1,-1,-1,-1,-1,-1,-1,-1,-1,-1,-1,-1,-1,-1,-1,-1,-1,-1,-1,-1,-1,-1,-1,-1,-1,-1,-1,-1,-1,-1,-1,-1,-1,-1,-1],"loss_changes":[2.1994485E3,9.915094E1,1.16468506E2,7.525244E1,8.0867966E1,6.680774E1,7.913086E0,2.9365417E1,4.866754E1,1.2005054E1,3.4142048E1,2.260057E1,7.909419E0,2.5176575E1,0E0,2.1325409E1,4.569176E1,1.3128998E1,2.778933E1,9.180869E0,3.9783897E0,3.893406E0,2.5889585E1,1.1273193E-1,1.1773005E1,6.95587E0,2.1938103E1,4.200287E-1,5.9108725E0,8.620758E0,2.0073814E1,9.164039E0,2.0380684E1,2.9472427E1,1.0023376E1,3.162218E0,1.3338203E1,4.8326173E0,5.4859304E0,5.51674E0,3.6822395E0,3.3384514E0,3.302103E0,1.2279307E1,9.359886E0,2.0170908E0,2.930298E-1,4.5157657E0,6.3699303E0,5.3937836E0,4.3601637E0,7.0464706E0,1.1697496E1,5.167389E-1,0E0,2.5267518E0,7.5018196E0,0E0,0E0,0E0,0E0,0E0,0E0,0E0,0E0,0E0,0E0,0E0,0E0,0E0,0E0,0E0,0E0,0E0,0E0,0E0,0E0,0E0,0E0,0E0,0E0,0E0,0E0,0E0,0E0,0E0,0E0,0E0,0E0,0E0,0E0,0E0,0E0,0E0,0E0,0E0,0E0,0E0,0E0,0E0,0E0,0E0,0E0,0E0,0E0,0E0,0E0,0E0,0E0,0E0,0E0],"parents":[2147483647,0,0,1,1,2,2,3,3,4,4,5,5,6,6,7,7,8,8,9,9,10,10,11,11,12,12,13,13,15,15,16,16,17,17,18,18,19,19,20,20,21,21,22,22,23,23,24,24,25,25,26,26,27,27,28,28,29,29,30,30,31,31,32,32,33,33,34,34,35,35,36,36,37,37,38,38,39,39,40,40,41,41,42,42,43,43,44,44,45,45,46,46,47,47,48,48,49,49,50,50,51,51,52,52,53,53,55,55,56,56],"right_children":[2,4,6,8,10,12,14,16,18,20,22,24,26,28,-1,30,32,34,36,38,40,42,44,46,48,50,52,54,56,58,60,62,64,66,68,70,72,74,76,78,80,82,84,86,88,90,92,94,96,98,100,102,104,106,-1,108,110,-1,-1,-1,-1,-1,-1,-1,-1,-1,-1,-1,-1,-1,-1,-1,-1,-1,-1,-1,-1,-1,-1,-1,-1,-1,-1,-1,-1,-1,-1,-1,-1,-1,-1,-1,-1,-1,-1,-1,-1,-1,-1,-1,-1,-1,-1,-1,-1,-1,-1,-1,-1,-1,-1],"split_conditions":[1.5206537E0,4.8368046E1,1.8723552E0,5.474979E2,3.1656424E1,6.56146E-1,2.0825388E0,3.4545006E1,1.3838212E0,5.504947E-1,1.06625244E2,2.7822395E1,1.6580641E0,1.236738E0,-1.14511825E-1,1.4195657E0,1.9556679E1,1.15679406E-1,1.4845298E1,2.4041479E0,3.6825603E3,-4.8172603E0,6.7998755E-1,1.9257761E1,1.6005561E0,2.0929237E1,9.9905723E-1,1.5621918E1,4.7059925E1,2.0033362E0,3.8451812E-1,1.4262363E0,2.895252E3,1.6111784E1,2.2999653E1,3.217337E3,9.875719E2,5.457837E1,1.9142506E1,5.3503098E1,4.5484223E0,3.7898384E1,2.1227297E-1,5.5079624E1,3.622648E2,1.4573383E1,6.3272446E-1,1.0093534E4,7.6575996E3,1.8949696E1,5.856023E3,1.410588E1,1.8354579E0,3.1656424E1,-1.790397E-2,6.7612535E-1,3.2095432E1,1.3909756E-1,9.993123E-2,-8.395409E-2,8.9049704E-2,-7.568482E-2,1.330864E-2,1.0573715E-1,2.1277044E-2,6.3352846E-2,1.3629394E-3,6.9213904E-2,5.0195515E-2,-1.1638353E-1,5.54979E-3,-5.727137E-2,3.1100675E-2,-1.38757825E-2,-9.57843E-2,-2.0675873E-2,1.2943392E-1,8.7760575E-2,-9.120352E-2,1.9939754E-2,-1.1045551E-1,5.1681507E-2,1.597849E-1,-2.054409E-2,8.761083E-2,1.0744075E-2,-4.465433E-2,-1.1302724E-1,4.1834798E-2,-9.8929144E-2,5.3261123E-3,-1.1355412E-1,-2.4716904E-2,3.234316E-2,-5.8805056E-2,-9.288763E-2,-2.7560333E-2,4.6904355E-2,-6.1238624E-2,1.0324176E-1,3.0409604E-2,-8.861652E-2,1.3883613E-2,5.2562274E-2,-7.317929E-2,-8.500333E-2,-1.14551306E-1,1.02899615E-2,1.0808327E-1,-9.164364E-2,3.9987188E-2],"split_indices":[14,2,14,10,11,15,14,2,14,14,10,2,14,15,0,14,11,15,2,15,9,7,15,11,14,11,15,12,2,12,15,15,0,2,2,10,10,2,11,2,12,11,5,2,0,2,15,9,9,11,0,12,15,11,0,5,11,0,0,0,0,0,0,0,0,0,0,0,0,0,0,0,0,0,0,0,0,0,0,0,0,0,0,0,0,0,0,0,0,0,0,0,0,0,0,0,0,0,0,0,0,0,0,0,0,0,0,0,0,0,0],"split_type":[0,0,0,0,0,0,0,0,0,0,0,0,0,0,0,0,0,0,0,0,0,0,0,0,0,0,0,0,0,0,0,0,0,0,0,0,0,0,0,0,0,0,0,0,0,0,0,0,0,0,0,0,0,0,0,0,0,0,0,0,0,0,0,0,0,0,0,0,0,0,0,0,0,0,0,0,0,0,0,0,0,0,0,0,0,0,0,0,0,0,0,0,0,0,0,0,0,0,0,0,0,0,0,0,0,0,0,0,0,0,0],"sum_hessian":[4.5035483E3,2.9075942E3,1.5959541E3,2.3254236E3,5.8217065E2,3.72762E2,1.2231921E3,6.3129913E2,1.6941244E3,9.71892E1,4.8498145E2,2.1727405E2,1.5548793E2,1.4010239E2,1.0830897E3,4.4404965E2,1.8724951E2,1.5738622E3,1.2026217E2,3.7747467E1,5.9441734E1,4.5230713E1,4.3975073E2,1.2450001E2,9.277405E1,6.713636E1,8.835157E1,1.1368152E2,2.642087E1,4.189224E2,2.5127234E1,4.4554092E1,1.4269542E2,3.0703186E2,1.2668303E3,2.4639091E1,9.562308E1,2.9550055E1,8.197411E0,4.913098E0,5.4528637E1,2.4113914E1,2.11168E1,1.6830579E2,2.7144495E2,7.2478743E0,1.1725213E2,2.7240746E1,6.55333E1,1.8120474E1,4.9015884E1,4.141554E1,4.693603E1,1.1245579E2,1.2257363E0,1.058371E1,1.583716E1,7.956241E1,3.3936E2,1.1107301E1,1.4019933E1,2.3072954E1,2.148114E1,1.01874214E2,4.0821205E1,1.5893443E2,1.4809743E2,4.4496744E2,8.218629E2,2.2569414E1,2.0696766E0,2.1044476E1,7.4578606E1,1.7057606E1,1.249245E1,3.8538814E0,4.3435287E0,2.2099059E0,2.7031922E0,1.8296407E0,5.2698997E1,5.1498623E0,1.8964052E1,2.7432132E0,1.8373587E1,1.0518759E2,6.311819E1,2.993598E0,2.6845135E2,4.9474382E0,2.3004363E0,1.15952194E2,1.2999371E0,2.1048075E1,6.19267E0,3.9101192E1,2.6432112E1,6.1803665E0,1.1940108E1,1.0335311E1,3.8680573E1,3.360422E1,7.811317E0,3.882343E1,8.1126E0,2.797575E1,8.4480034E1,6.3989906E0,4.1847196E0,9.22547E0,6.6116915E0],"tree_param":{"num_deleted":"0","num_feature":"17","num_nodes":"111","size_leaf_vector":"1"}},{"base_weights":[-2.039681E-2,4.0670776E-1,-1.0117115E0,-4.097938E-1,8.8756996E-1,-6.262406E-1,-1.1113093E0,-7.37587E-1,-2.1620233E-1,5.6134164E-1,1.0359386E0,-9.790498E-1,3.9316726E-1,-9.2464566E-1,-1.1331113E-1,-0E0,-7.8239435E-1,4.9486467E-1,-3.1833526E-1,7.173254E-1,-4.0852243E-1,1.2471685E0,7.860602E-1,-1.0215943E0,-4.5124325E-1,-1.7991123E-1,1.0237648E0,-1.0531557E0,-6.7756E-2,6.6940725E-1,-4.8980963E-1,-9.93352E-1,-7.1034145E-1,6.8549967E-1,-4.6898788E-1,-2.461031E-1,-7.113725E-1,1.241889E0,3.6492258E-1,1.9152014E-2,-8.028427E-1,1.2988364E0,2.5441414E-1,-8.605459E-2,9.641123E-1,-4.41051E-1,-1.0336723E0,-8.2057977E-1,1.4691786E-1,2.1716437E-1,-6.728202E-1,1.2343088E0,-7.525394E-1,-1.1093072E-2,-1.0620665E-1,-8.594267E-1,6.637541E-1,1.1003726E-1,-5.703763E-2,-6.99102E-2,9.7836845E-2,-9.5158005E-3,-1.02779485E-1,-5.3849436E-2,-7.723551E-2,7.211998E-2,-8.3679385E-2,-9.4308764E-2,3.5347417E-3,-3.709687E-2,-6.8736537E-3,-9.597778E-2,-3.8362693E-2,3.44337E-2,1.3794993E-1,1.436982E-1,2.653549E-2,-3.584659E-2,5.9109647E-2,5.331857E-2,-8.777013E-2,1.5505046E-1,1.17589034E-1,-7.288794E-2,1.0111159E-1,2.7031465E-2,-7.720585E-2,2.6424328E-2,1.1508679E-1,-8.895434E-2,6.92798E-2,-1.06995635E-1,-7.7149175E-2,-4.4658487E-3,-1.08336486E-1,-7.8996085E-2,3.989407E-2,-8.5776746E-2,8.203435E-2,1.8586831E-1,7.300362E-2,-1.2139418E-2,-8.8783234E-2,-9.395053E-2,-1.1290582E-2,1.4988153E-1,-2.4768947E-2],"categories":[],"categories_nodes":[],"categories_segments":[],"categories_sizes":[],"default_left":[0,0,0,0,0,0,0,0,0,0,0,0,0,0,0,0,0,0,0,0,0,0,0,0,0,0,0,0,0,0,0,0,0,0,0,0,0,0,0,0,0,0,0,0,0,0,0,0,0,0,0,0,0,0,0,0,0,0,0,0,0,0,0,0,0,0,0,0,0,0,0,0,0,0,0,0,0,0,0,0,0,0,0,0,0,0,0,0,0,0,0,0,0,0,0,0,0,0,0,0,0,0,0,0,0,0,0],"id":7,"left_children":[1,3,5,7,9,11,13,15,17,19,21,23,25,27,-1,29,31,33,35,37,39,41,43,45,47,49,51,53,55,57,59,61,63,65,67,69,71,73,75,77,79,81,83,85,87,89,91,93,-1,95,97,99,101,-1,-1,103,105,-1,-1,-1,-1,-1,-1,-1,-1,-1,-1,-1,-1,-1,-1,-1,-1,-1,-1,-1,-1,-1,-1,-1,-1,-1,-1,-1,-1,-1,-1,-1,-1,-1,-1,-1,-1,-1,-1,-1,-1,-1,-1,-1,-1,-1,-1,-1,-1,-1,-1],"loss_changes":[1.8898171E3,1.2251396E3,5.0730713E1,7.315173E1,9.429883E1,1.0059499E2,3.086914E0,1.4108871E1,5.3072712E1,9.355084E1,6.998303E1,4.0450897E0,2.6373446E1,1.2751175E1,0E0,8.729889E0,5.268448E0,1.7212656E1,1.7843613E1,9.760373E1,1.45845785E1,3.689392E1,9.653479E1,7.345123E-1,1.3499523E1,7.748807E0,1.3926346E1,6.2104034E-1,1.0138894E1,6.663023E0,5.411127E0,2.8851776E0,2.705307E0,4.7843285E0,3.8702364E0,1.1906391E1,7.501526E0,2.5657623E1,3.3535572E1,9.322435E0,4.9882164E0,1.9326782E1,2.8585917E1,2.6182333E1,6.6937164E1,3.5862286E0,7.5982666E-1,2.9583216E0,0E0,4.3087883E0,5.563148E0,8.265835E0,1.5335536E-1,0E0,0E0,2.9204416E-1,7.398546E0,0E0,0E0,0E0,0E0,0E0,0E0,0E0,0E0,0E0,0E0,0E0,0E0,0E0,0E0,0E0,0E0,0E0,0E0,0E0,0E0,0E0,0E0,0E0,0E0,0E0,0E0,0E0,0E0,0E0,0E0,0E0,0E0,0E0,0E0,0E0,0E0,0E0,0E0,0E0,0E0,0E0,0E0,0E0,0E0,0E0,0E0,0E0,0E0,0E0,0E0],"parents":[2147483647,0,0,1,1,2,2,3,3,4,4,5,5,6,6,7,7,8,8,9,9,10,10,11,11,12,12,13,13,15,15,16,16,17,17,18,18,19,19,20,20,21,21,22,22,23,23,24,24,25,25,26,26,27,27,28,28,29,29,30,30,31,31,32,32,33,33,34,34,35,35,36,36,37,37,38,38,39,39,40,40,41,41,42,42,43,43,44,44,45,45,46,46,47,47,49,49,50,50,51,51,52,52,55,55,56,56],"right_children":[2,4,6,8,10,12,14,16,18,20,22,24,26,28,-1,30,32,34,36,38,40,42,44,46,48,50,52,54,56,58,60,62,64,66,68,70,72,74,76,78,80,82,84,86,88,90,92,94,-1,96,98,100,102,-1,-1,104,106,-1,-1,-1,-1,-1,-1,-1,-1,-1,-1,-1,-1,-1,-1,-1,-1,-1,-1,-1,-1,-1,-1,-1,-1,-1,-1,-1,-1,-1,-1,-1,-1,-1,-1,-1,-1,-1,-1,-1,-1,-1,-1,-1,-1,-1,-1,-1,-1,-1,-1],"split_conditions":[1.6453449E0,-1.6541272E0,1.9733301E0,-2.177305E1,2.354188E-1,2.4813694E1,2.1717587E0,1.0058272E2,4.540421E2,1.3099796E0,3.8894176E1,1.9162727E1,1.151138E0,3.371214E1,-1.1331113E-1,-1.0644095E1,-4.1844322E1,1.297619E0,1.297619E0,1.2855363E1,1.4421254E0,1.5206537E0,3.1555073E1,1.83835E1,1.0636374E0,1.788207E0,2.2986784E0,1.8195412E1,1.351006E0,1.1114074E0,9.924414E1,5.967378E2,2.6158992E3,-1.9525902E0,2.0863178E1,-8.093333E0,2.5097322E1,2.5436252E-2,2.1672268E3,2.8190603E3,2.0440924E1,4.375596E3,1.8466564E1,5.261977E1,2.3360117E1,6.30863E0,4.9633644E1,1.7075703E0,1.4691786E-1,-4.960687E0,1.4787039E4,4.7323322E1,-1.7443457E1,-1.1093072E-2,-1.0620665E-1,5.326814E1,4.7323322E1,1.1003726E-1,-5.703763E-2,-6.99102E-2,9.7836845E-2,-9.5158005E-3,-1.02779485E-1,-5.3849436E-2,-7.723551E-2,7.211998E-2,-8.3679385E-2,-9.4308764E-2,3.5347417E-3,-3.709687E-2,-6.8736537E-3,-9.597778E-2,-3.8362693E-2,3.44337E-2,1.3794993E-1,1.436982E-1,2.653549E-2,-3.584659E-2,5.9109647E-2,5.331857E-2,-8.777013E-2,1.5505046E-1,1.17589034E-1,-7.288794E-2,1.0111159E-1,2.7031465E-2,-7.720585E-2,2.6424328E-2,1.1508679E-1,-8.895434E-2,6.92798E-2,-1.06995635E-1,-7.7149175E-2,-4.4658487E-3,-1.08336486E-1,-7.8996085E-2,3.989407E-2,-8.5776746E-2,8.203435E-2,1.8586831E-1,7.300362E-2,-1.2139418E-2,-8.8783234E-2,-9.395053E-2,-1.1290582E-2,1.4988153E-1,-2.4768947E-2],"split_indices":[14,1,14,1,15,1,14,10,10,14,2,1,15,1,0,7,1,14,14,2,14,14,11,11,15,14,15,11,15,15,10,0,0,1,2,1,2,15,9,10,11,9,1,2,1,1,2,14,0,4,0,2,7,0,0,2,2,0,0,0,0,0,0,0,0,0,0,0,0,0,0,0,0,0,0,0,0,0,0,0,0,0,0,0,0,0,0,0,0,0,0,0,0,0,0,0,0,0,0,0,0,0,0,0,0,0,0],"split_type":[0,0,0,0,0,0,0,0,0,0,0,0,0,0,0,0,0,0,0,0,0,0,0,0,0,0,0,0,0,0,0,0,0,0,0,0,0,0,0,0,0,0,0,0,0,0,0,0,0,0,0,0,0,0,0,0,0,0,0,0,0,0,0,0,0,0,0,0,0,0,0,0,0,0,0,0,0,0,0,0,0,0,0,0,0,0,0,0,0,0,0,0,0,0,0,0,0,0,0,0,0,0,0,0,0,0,0],"sum_hessian":[4.4613696E3,3.1183347E3,1.3430352E3,1.1557748E3,1.9625598E3,2.7746432E2,1.0655708E3,4.2790698E2,7.2786786E2,6.1524194E2,1.3473179E3,2.0622807E2,7.1236244E1,1.1646051E2,9.491103E2,2.4671427E1,4.0323557E2,9.080984E1,6.3705804E2,5.303147E2,8.492728E1,7.2774286E2,6.19575E2,1.8980368E2,1.642439E1,3.7611526E1,3.362472E1,1.0097177E2,1.5488741E1,1.0196623E1,1.4474804E1,9.905282E1,3.0418274E2,7.614256E1,1.466727E1,5.397446E2,9.73134E1,2.1197493E2,3.1833975E2,4.1075344E1,4.3851936E1,6.913524E2,3.639042E1,1.0503914E2,5.145359E2,4.8016706E0,1.8500201E2,1.429915E1,2.1252396E0,2.1028233E1,1.6583292E1,3.0384674E1,3.2400491E0,1.1771063E0,9.979466E1,7.420166E0,8.068576E0,7.7097263E0,2.486897E0,1.3186918E1,1.2878857E0,3.9042714E0,9.514855E1,8.3656624E1,2.2052611E2,7.497619E1,1.1663761E0,7.21404E0,7.4532294E0,3.157806E2,2.23964E2,5.4086536E1,4.3226868E1,2.8741247E1,1.8323369E2,2.5826427E1,2.9251334E2,2.4860182E1,1.6215162E1,1.9309602E0,4.1920975E1,2.228198E2,4.6853262E2,1.5784247E1,2.060617E1,6.943094E1,3.5608196E1,1.0900152E2,4.055344E2,3.6582968E0,1.1433735E0,1.5947003E2,2.5531971E1,4.009841E0,1.02893095E1,2.6194353E0,1.8408796E1,1.519385E1,1.3894424E0,1.2287057E1,1.8097616E1,1.0373219E0,2.2027273E0,6.346875E0,1.0732906E0,3.9316697E0,4.1369057E0],"tree_param":{"num_deleted":"0","num_feature":"17","num_nodes":"107","size_leaf_vector":"1"}},{"base_weights":[-1.4367416E-2,3.7718305E-1,-9.9037725E-1,-3.783986E-1,8.0845225E-1,-1.0688872E0,-4.8081076E-1,-7.652449E-1,-2.4226734E-1,3.8555187E-1,9.3470746E-1,-5.4851615E-1,-1.0865015E0,3.7233883E-1,-1.0499097E0,-9.783092E-1,-6.538434E-1,3.8172728E-1,-3.3130938E-1,5.0508815E-1,-4.083129E-1,1.0427976E0,5.716332E-1,-7.969718E-1,2.951981E-1,-9.425695E-1,-1.11439995E-1,-8.103613E-2,7.258714E-1,-6.077237E-1,-1.1150197E-1,-0E0,-1.020622E0,2.0058627E-1,-6.8410945E-1,5.487259E-1,-5.825824E-1,-2.7382842E-1,-7.661863E-1,9.63614E-1,1.8909675E-1,1.1398613E0,-4.9137333E-1,8.468191E-1,1.2257361E0,5.6813948E-2,9.764145E-1,2.1613209E-2,-8.8012326E-1,1.8633346E-1,-4.3100378E-1,-1.0389805E0,-0E0,4.616231E-1,-8.098566E-1,1.3157352E0,2.0511003E-1,7.9165244E-1,-1.0466404E-1,6.6445984E-2,-7.409703E-2,-1.615917E-2,-1.029582E-1,-4.3221973E-2,7.287975E-2,3.207406E-2,-6.9567434E-2,4.3942623E-2,9.9471025E-2,-9.1595136E-2,-1.8910712E-2,-3.6774214E-2,-7.949679E-3,-9.291374E-2,-3.379678E-2,7.1984336E-2,1.24942325E-1,1.24263264E-1,5.7378253E-3,1.6826634E-1,8.446325E-3,-9.511323E-2,-2.2564344E-2,9.522695E-2,-3.725024E-2,1.3535927E-1,1.0747045E-1,-7.443952E-2,4.182911E-2,6.4371433E-4,1.13449626E-1,-1.0375909E-1,-2.125963E-2,-7.494643E-2,5.8150556E-2,-1.0499748E-1,-1.9954154E-2,-5.4039788E-2,1.3034594E-1,1.0631454E-1,-1.0532707E-2,-1.1221724E-1,1.6914863E-2,1.4543478E-1,1.5642917E-2,-1.065858E-1,1.1130746E-1,-4.0010065E-2,2.2002268E-1],"categories":[],"categories_nodes":[],"categories_segments":[],"categories_sizes":[],"default_left":[0,0,0,0,0,0,0,0,0,0,0,0,0,0,0,0,0,0,0,0,0,0,0,0,0,0,0,0,0,0,0,0,0,0,0,0,0,0,0,0,0,0,0,0,0,0,0,0,0,0,0,0,0,0,0,0,0,0,0,0,0,0,0,0,0,0,0,0,0,0,0,0,0,0,0,0,0,0,0,0,0,0,0,0,0,0,0,0,0,0,0,0,0,0,0,0,0,0,0,0,0,0,0,0,0,0,0,0,0],"id":8,"left_children":[1,3,5,7,9,11,13,15,17,19,21,23,25,27,29,31,33,35,37,39,41,43,45,47,49,51,-1,53,55,57,-1,59,61,63,65,67,69,71,73,75,77,79,81,83,85,87,89,-1,91,-1,93,95,97,99,101,103,105,107,-1,-1,-1,-1,-1,-1,-1,-1,-1,-1,-1,-1,-1,-1,-1,-1,-1,-1,-1,-1,-1,-1,-1,-1,-1,-1,-1,-1,-1,-1,-1,-1,-1,-1,-1,-1,-1,-1,-1,-1,-1,-1,-1,-1,-1,-1,-1,-1,-1,-1,-1],"loss_changes":[1.6540037E3,1.00683875E3,4.890686E1,5.8850815E1,1.0452026E2,9.073608E0,8.174822E1,6.1196747E0,4.6365746E1,4.330426E1,5.8647583E1,8.110695E0,2.9057617E0,1.0968293E1,2.0511703E0,4.1437073E0,5.224167E0,1.7106201E1,1.7910217E1,5.6962296E1,8.193557E0,4.0523193E1,7.271216E1,2.7164135E0,1.134367E1,1.6019638E1,0E0,1.2439975E1,1.1324913E1,1.0268595E1,0E0,2.9292774E0,4.3684387E-1,2.793356E0,2.451332E0,3.780943E0,1.7871103E0,1.1710152E1,5.445381E0,1.01111145E1,3.2456074E1,1.5649023E0,6.702096E0,7.318326E1,9.889893E0,4.519645E1,2.9870193E1,0E0,2.5211716E0,0E0,2.7125876E0,1.1343842E0,1.2876846E1,6.3448095E0,4.389907E0,2.4486732E0,2.6100048E1,8.068258E0,0E0,0E0,0E0,0E0,0E0,0E0,0E0,0E0,0E0,0E0,0E0,0E0,0E0,0E0,0E0,0E0,0E0,0E0,0E0,0E0,0E0,0E0,0E0,0E0,0E0,0E0,0E0,0E0,0E0,0E0,0E0,0E0,0E0,0E0,0E0,0E0,0E0,0E0,0E0,0E0,0E0,0E0,0E0,0E0,0E0,0E0,0E0,0E0,0E0,0E0,0E0],"parents":[2147483647,0,0,1,1,2,2,3,3,4,4,5,5,6,6,7,7,8,8,9,9,10,10,11,11,12,12,13,13,14,14,15,15,16,16,17,17,18,18,19,19,20,20,21,21,22,22,23,23,24,24,25,25,27,27,28,28,29,29,31,31,32,32,33,33,34,34,35,35,36,36,37,37,38,38,39,39,40,40,41,41,42,42,43,43,44,44,45,45,46,46,48,48,50,50,51,51,52,52,53,53,54,54,55,55,56,56,57,57],"right_children":[2,4,6,8,10,12,14,16,18,20,22,24,26,28,30,32,34,36,38,40,42,44,46,48,50,52,-1,54,56,58,-1,60,62,64,66,68,70,72,74,76,78,80,82,84,86,88,90,-1,92,-1,94,96,98,100,102,104,106,108,-1,-1,-1,-1,-1,-1,-1,-1,-1,-1,-1,-1,-1,-1,-1,-1,-1,-1,-1,-1,-1,-1,-1,-1,-1,-1,-1,-1,-1,-1,-1,-1,-1,-1,-1,-1,-1,-1,-1,-1,-1,-1,-1,-1,-1,-1,-1,-1,-1,-1,-1],"split_conditions":[1.6453449E0,-1.6541272E0,3.2096848E1,-2.7401955E1,1.6221845E-1,1.6923044E0,2.1475902E0,-4.1844322E1,4.540421E2,1.3099796E0,4.874619E1,1.6727911E1,1.9733301E0,1.2214401E0,2.4145215E0,1.9879669E3,9.596282E1,1.3099796E0,1.3731387E0,1.2154475E1,-1.7179166E2,4.875631E-1,3.6079018E1,1.9014494E1,3.2095432E1,2.5221577E1,-1.11439995E-1,1.8200672E0,4.986066E1,2.0565271E1,-1.1150197E-1,7.6037306E-1,-3.4602293E-1,1.0068602E1,-1.76015E2,2.1672268E3,2.0863178E1,-7.40559E0,3.588218E1,8.797572E-2,1.0991077E2,3.44467E0,1.1498534E1,1.4421254E0,3.7242393E1,3.4457508E1,3.1656424E1,2.1613209E-2,2.7907512E3,1.8633346E-1,4.600843E1,5.9159122E1,1.236738E0,4.6868584E1,5.457837E1,2.1528444E1,2.1980042E1,8.609052E1,-1.0466404E-1,6.6445984E-2,-7.409703E-2,-1.615917E-2,-1.029582E-1,-4.3221973E-2,7.287975E-2,3.207406E-2,-6.9567434E-2,4.3942623E-2,9.9471025E-2,-9.1595136E-2,-1.8910712E-2,-3.6774214E-2,-7.949679E-3,-9.291374E-2,-3.379678E-2,7.1984336E-2,1.24942325E-1,1.24263264E-1,5.7378253E-3,1.6826634E-1,8.446325E-3,-9.511323E-2,-2.2564344E-2,9.522695E-2,-3.725024E-2,1.3535927E-1,1.0747045E-1,-7.443952E-2,4.182911E-2,6.4371433E-4,1.13449626E-1,-1.0375909E-1,-2.125963E-2,-7.494643E-2,5.8150556E-2,-1.0499748E-1,-1.9954154E-2,-5.4039788E-2,1.3034594E-1,1.0631454E-1,-1.0532707E-2,-1.1221724E-1,1.6914863E-2,1.4543478E-1,1.5642917E-2,-1.065858E-1,1.1130746E-1,-4.0010065E-2,2.2002268E-1],"split_indices":[14,1,1,1,15,14,14,1,10,14,2,1,14,15,14,9,10,14,14,2,3,15,1,11,11,1,0,14,2,11,0,14,14,4,3,9,2,1,2,15,10,1,2,14,2,11,11,0,10,0,2,2,15,2,2,4,11,3,0,0,0,0,0,0,0,0,0,0,0,0,0,0,0,0,0,0,0,0,0,0,0,0,0,0,0,0,0,0,0,0,0,0,0,0,0,0,0,0,0,0,0,0,0,0,0,0,0,0,0],"split_type":[0,0,0,0,0,0,0,0,0,0,0,0,0,0,0,0,0,0,0,0,0,0,0,0,0,0,0,0,0,0,0,0,0,0,0,0,0,0,0,0,0,0,0,0,0,0,0,0,0,0,0,0,0,0,0,0,0,0,0,0,0,0,0,0,0,0,0,0,0,0,0,0,0,0,0,0,0,0,0,0,0,0,0,0,0,0,0,0,0,0,0,0,0,0,0,0,0,0,0,0,0,0,0,0,0,0,0,0,0],"sum_hessian":[4.3259346E3,3.0877273E3,1.2382072E3,1.121956E3,1.9657712E3,1.0717816E3,1.6642554E2,2.9065143E2,8.313047E2,4.5306042E2,1.5127108E3,3.6329662E1,1.0354519E3,6.66616E1,9.976395E1,9.6811745E1,1.9383968E2,1.032603E2,7.280444E2,3.941943E2,5.8866123E1,1.164024E3,3.4868683E2,2.8199453E1,8.130208E0,1.743458E2,8.6110614E2,2.9420399E1,3.72412E1,1.4327864E1,8.543608E1,3.9640765E0,9.284767E1,6.325833E0,1.8751384E2,8.847323E1,1.4787076E1,6.446904E2,8.335398E1,1.5986008E2,2.3433424E2,2.288234E0,5.657789E1,5.6496454E2,5.990595E2,1.5409245E2,1.9459438E2,1.926417E0,2.6273037E1,2.121326E0,6.0088816E0,1.5815376E2,1.6192036E1,1.6995462E1,1.2424935E1,1.6656206E1,2.0584991E1,3.1746862E0,1.1153177E1,2.2104588E0,1.7536178E0,1.2701344E0,9.157754E1,2.87452E0,3.4513128E0,1.730983E0,1.8578285E2,7.283315E1,1.5640075E1,7.148538E0,7.6385384E0,4.3369418E2,2.1099623E2,5.9361637E1,2.3992342E1,8.8362755E1,7.1497314E1,2.502015E1,2.093141E2,1.0560209E0,1.2322133E0,1.9640596E1,3.693729E1,5.2027106E2,4.469349E1,3.1974963E2,2.7930984E2,4.7491734E1,1.0660072E2,2.7504162E1,1.6709021E2,2.0688494E1,5.584542E0,4.8439064E0,1.1649752E0,1.5574402E2,2.4097455E0,1.1815806E1,4.37623E0,7.907234E0,9.088228E0,9.386442E0,3.0384934E0,1.4573025E1,2.0831826E0,8.45944E0,1.2125551E1,2.0690684E0,1.1056179E0],"tree_param":{"num_deleted":"0","num_feature":"17","num_nodes":"109","size_leaf_vector":"1"}},{"base_weights":[-2.7401637E-2,-5.8519775E-1,3.185528E-1,-2.0835361E-1,-7.873487E-1,6.2436765E-1,-1.8444206E-1,6.275081E-2,-5.337918E-1,-1.0088974E0,-5.487027E-1,9.243173E-1,4.4017902E-1,-9.32829E-1,3.7951237E-1,3.3764616E-1,-1.5377204E-1,6.46024E-2,-5.946335E-1,-6.4043033E-1,-1.046274E0,-4.0826556E-1,-7.7970994E-1,1.24906E0,7.486936E-1,6.298453E-1,-8.1113064E-1,-1.0844451E0,-3.9775458E-1,-2.0398198E-2,6.334182E-1,5.7194823E-1,-2.275925E-1,-2.2906855E-1,7.267293E-1,-1.4686772E-1,1.1170604E0,-1.1191171E-1,-6.535523E-1,-9.64139E-2,-8.2708454E-1,-1.0808756E-1,-7.95669E-1,-5.8096206E-1,-9.8524965E-2,-6.3817054E-1,-9.2034066E-1,9.173737E-1,1.3405299E0,9.920325E-1,3.8105273E-1,7.6693976E-1,2.3641965E-1,2.442308E-1,-1.0329759E0,-3.9678913E-1,-1.0942701E-1,3.964356E-2,-9.9538225E-1,2.1054786E-1,-6.765039E-1,1.9443464E-1,8.550218E-1,9.4030075E-2,3.1820785E-2,-8.149152E-2,3.0768795E-2,2.6870701E-2,-2.928753E-2,9.971613E-2,-4.9356516E-2,8.814906E-2,-3.267815E-2,1.7754199E-1,3.330291E-2,9.6152216E-2,-6.616904E-2,-4.6858046E-2,-8.0285616E-2,-3.591659E-2,8.031389E-2,-6.069431E-4,-9.060226E-2,4.2243693E-2,-8.460494E-2,-2.5729774E-2,-7.063064E-2,8.305614E-4,-5.7854254E-2,-7.391549E-2,-2.077916E-2,-9.54861E-2,-1.2391901E-2,1.3279073E-1,6.2130947E-2,1.5270226E-1,1.0502721E-1,8.655422E-2,1.3944042E-1,-3.1641994E-2,6.541187E-2,1.5821312E-2,8.750308E-2,-3.828994E-2,6.7357466E-2,-3.9996013E-2,1.2097254E-1,-1.0610093E-1,2.5864849E-2,-8.5528664E-2,4.8342917E-2,-8.46033E-2,6.779807E-2,-1.1061493E-1,-2.037759E-2,-4.473136E-2,4.558682E-2,9.3279116E-2,-7.458226E-2,4.2187706E-2,-9.379434E-2,9.506747E-2,1.61336E-2],"categories":[],"categories_nodes":[],"categories_segments":[],"categories_sizes":[],"default_left":[0,0,0,0,0,0,0,0,0,0,0,0,0,0,0,0,0,0,0,0,0,0,0,0,0,0,0,0,0,0,0,0,0,0,0,0,0,0,0,0,0,0,0,0,0,0,0,0,0,0,0,0,0,0,0,0,0,0,0,0,0,0,0,0,0,0,0,0,0,0,0,0,0,0,0,0,0,0,0,0,0,0,0,0,0,0,0,0,0,0,0,0,0,0,0,0,0,0,0,0,0,0,0,0,0,0,0,0,0,0,0,0,0,0,0,0,0,0,0,0,0,0,0],"id":9,"left_children":[1,3,5,7,9,11,13,15,17,19,21,23,25,27,29,31,33,35,37,39,41,43,45,47,49,51,53,55,57,59,61,63,65,67,69,71,73,75,77,79,81,-1,83,85,87,89,91,93,95,97,99,101,103,105,107,109,-1,111,113,115,117,119,121,-1,-1,-1,-1,-1,-1,-1,-1,-1,-1,-1,-1,-1,-1,-1,-1,-1,-1,-1,-1,-1,-1,-1,-1,-1,-1,-1,-1,-1,-1,-1,-1,-1,-1,-1,-1,-1,-1,-1,-1,-1,-1,-1,-1,-1,-1,-1,-1,-1,-1,-1,-1,-1,-1,-1,-1,-1,-1,-1,-1],"loss_changes":[8.077426E2,1.2180316E2,3.9753674E2,4.9574757E1,5.4402832E1,8.823462E1,4.1293588E2,1.8329342E1,9.383171E0,6.5863647E0,1.5921265E1,3.366797E1,2.372751E2,3.352527E1,5.6736084E1,1.8133575E1,1.1525763E1,5.6703854E0,6.446205E0,5.156599E0,3.1810913E0,1.6775879E1,3.0242844E0,4.991211E0,3.51566E1,4.6481293E1,3.1162575E1,1.625E0,2.4849133E1,3.3149128E1,3.29505E1,8.578426E0,1.2987002E1,5.1436977E0,5.060885E0,4.125835E0,1.3977003E0,1.6315023E1,5.193863E0,3.7125025E0,2.4180698E0,0E0,4.284691E0,7.9350204E0,5.9342103E0,4.0087166E0,2.3120804E0,4.976555E0,7.0242004E0,1.0738617E1,3.0827356E1,4.2021576E1,6.138727E1,1.5245565E1,4.304413E0,2.9998147E0,0E0,3.1909142E1,3.1587753E0,2.6275167E1,7.0336456E0,3.0222155E1,1.4764114E1,0E0,0E0,0E0,0E0,0E0,0E0,0E0,0E0,0E0,0E0,0E0,0E0,0E0,0E0,0E0,0E0,0E0,0E0,0E0,0E0,0E0,0E0,0E0,0E0,0E0,0E0,0E0,0E0,0E0,0E0,0E0,0E0,0E0,0E0,0E0,0E0,0E0,0E0,0E0,0E0,0E0,0E0,0E0,0E0,0E0,0E0,0E0,0E0,0E0,0E0,0E0,0E0,0E0,0E0,0E0,0E0,0E0,0E0,0E0,0E0],"parents":[2147483647,0,0,1,1,2,2,3,3,4,4,5,5,6,6,7,7,8,8,9,9,10,10,11,11,12,12,13,13,14,14,15,15,16,16,17,17,18,18,19,19,20,20,21,21,22,22,23,23,24,24,25,25,26,26,27,27,28,28,29,29,30,30,31,31,32,32,33,33,34,34,35,35,36,36,37,37,38,38,39,39,40,40,42,42,43,43,44,44,45,45,46,46,47,47,48,48,49,49,50,50,51,51,52,52,53,53,54,54,55,55,57,57,58,58,59,59,60,60,61,61,62,62],"right_children":[2,4,6,8,10,12,14,16,18,20,22,24,26,28,30,32,34,36,38,40,42,44,46,48,50,52,54,56,58,60,62,64,66,68,70,72,74,76,78,80,82,-1,84,86,88,90,92,94,96,98,100,102,104,106,108,110,-1,112,114,116,118,120,122,-1,-1,-1,-1,-1,-1,-1,-1,-1,-1,-1,-1,-1,-1,-1,-1,-1,-1,-1,-1,-1,-1,-1,-1,-1,-1,-1,-1,-1,-1,-1,-1,-1,-1,-1,-1,-1,-1,-1,-1,-1,-1,-1,-1,-1,-1,-1,-1,-1,-1,-1,-1,-1,-1,-1,-1,-1,-1,-1,-1],"split_conditions":[-1.6541272E0,4.414801E3,8.021331E3,5.069447E-1,6.8318135E3,2.8397488E3,6.855197E3,4.2768735E3,2.209576E1,5.2317393E3,4.7798562E-1,4.9545684E0,4E0,6.3250347E3,1.2895515E1,2.5561694E3,4.122272E3,8.971114E-1,1.9784398E0,2.0198143E1,6.4814863E3,2.8022806E1,9.534697E3,1.5542091E-1,3.700926E1,4.473519E1,3.356845E3,8.14101E3,1.1211868E4,1.242319E4,1.3591392E1,1.9912102E0,2.1672268E3,6.586821E2,1.0435476E4,5.3590594E2,4.8453064E0,1.6001559E3,4.0678715E1,9.184062E0,-6.997578E0,-1.0808756E-1,7.0787154E-2,1.2200791E-1,5.152589E1,8.523565E3,1.0817419E4,2.0033362E0,3.979773E1,5.6009924E-1,2.0643572E1,3.190318E0,3.45653E1,6.269064E-1,1.3751348E0,4.970995E0,-1.0942701E-1,3.9834067E-1,4.1759983E1,7.6354214E3,-2.8496563E1,1.3080419E4,1.4058438E4,9.4030075E-2,3.1820785E-2,-8.149152E-2,3.0768795E-2,2.6870701E-2,-2.928753E-2,9.971613E-2,-4.9356516E-2,8.814906E-2,-3.267815E-2,1.7754199E-1,3.330291E-2,9.6152216E-2,-6.616904E-2,-4.6858046E-2,-8.0285616E-2,-3.591659E-2,8.031389E-2,-6.069431E-4,-9.060226E-2,4.2243693E-2,-8.460494E-2,-2.5729774E-2,-7.063064E-2,8.305614E-4,-5.7854254E-2,-7.391549E-2,-2.077916E-2,-9.54861E-2,-1.2391901E-2,1.3279073E-1,6.2130947E-2,1.5270226E-1,1.0502721E-1,8.655422E-2,1.3944042E-1,-3.1641994E-2,6.541187E-2,1.5821312E-2,8.750308E-2,-3.828994E-2,6.7357466E-2,-3.9996013E-2,1.2097254E-1,-1.0610093E-1,2.5864849E-2,-8.5528664E-2,4.8342917E-2,-8.46033E-2,6.779807E-2,-1.1061493E-1,-2.037759E-2,-4.473136E-2,4.558682E-2,9.3279116E-2,-7.458226E-2,4.2187706E-2,-9.379434E-2,9.506747E-2,1.61336E-2],"split_indices":[1,0,0,15,9,0,9,9,2,0,15,12,13,9,1,0,0,5,12,11,9,2,0,15,2,2,0,0,0,0,12,12,9,0,9,0,12,0,2,7,4,0,15,15,2,0,9,12,2,15,1,1,11,15,15,12,0,15,1,9,7,0,0,0,0,0,0,0,0,0,0,0,0,0,0,0,0,0,0,0,0,0,0,0,0,0,0,0,0,0,0,0,0,0,0,0,0,0,0,0,0,0,0,0,0,0,0,0,0,0,0,0,0,0,0,0,0,0,0,0,0,0,0],"split_type":[0,0,0,0,0,0,0,0,0,0,0,0,0,0,0,0,0,0,0,0,0,0,0,0,0,0,0,0,0,0,0,0,0,0,0,0,0,0,0,0,0,0,0,0,0,0,0,0,0,0,0,0,0,0,0,0,0,0,0,0,0,0,0,0,0,0,0,0,0,0,0,0,0,0,0,0,0,0,0,0,0,0,0,0,0,0,0,0,0,0,0,0,0,0,0,0,0,0,0,0,0,0,0,0,0,0,0,0,0,0,0,0,0,0,0,0,0,0,0,0,0,0,0],"sum_hessian":[4.1836973E3,1.6013594E3,2.5823381E3,5.59982E2,1.0413773E3,1.6059171E3,9.7642096E2,3.057656E2,2.542164E2,5.3814246E2,5.0323492E2,6.092299E2,9.9668713E2,4.1939395E2,5.5702704E2,1.3467981E2,1.7108577E2,2.3304562E1,2.3091183E2,5.1477226E1,4.866652E2,3.1496014E2,1.882748E2,2.1148862E2,3.9774133E2,8.6600037E2,1.3068677E2,3.2584927E2,9.3544685E1,2.1652243E2,3.4050458E2,9.532914E1,3.9350674E1,1.5839404E2,1.26917305E1,2.0042803E1,3.261758E0,2.5618229E1,2.0529361E2,1.3674438E1,3.7802788E1,4.2436044E2,6.2304756E1,2.0144536E2,1.1351477E2,9.694868E1,9.132612E1,4.8336033E1,1.6315259E2,2.3814465E2,1.5959666E2,6.413202E2,2.2468018E2,2.2603899E1,1.0808287E2,5.316398E0,3.2053287E2,5.445553E1,3.9089157E1,1.6053984E2,5.598258E1,1.1500842E2,2.2549617E2,3.761865E1,5.771049E1,1.86032E1,2.0747475E1,1.745373E1,1.409403E2,1.0606092E1,2.0856388E0,2.3209994E0,1.7721804E1,1.016321E0,2.2454371E0,8.361574E0,1.7256655E1,9.384176E1,1.1145184E2,1.1134142E1,2.5402963E0,3.521388E0,3.4281403E1,2.102414E0,6.020234E1,5.730996E1,1.4413539E2,9.34838E1,2.0030968E1,7.775451E1,1.9194164E1,8.722109E1,4.1050253E0,1.865096E1,2.9685074E1,9.652755E1,6.662504E1,1.8377303E2,5.4371628E1,4.475563E1,1.1484104E2,9.721757E1,5.441026E2,9.2926384E1,1.3175378E2,1.38471E1,8.756799E0,1.060374E2,2.04547E0,3.5889041E0,1.7274941E0,2.2606945E1,3.1848585E1,3.3831543E1,5.2576146E0,4.3271126E1,1.1726872E2,1.7378427E0,5.4244736E1,9.636825E1,1.8640177E1,1.9771803E2,2.777814E1],"tree_param":{"num_deleted":"0","num_feature":"17","num_nodes":"123","size_leaf_vector":"1"}},{"base_weights":[-1.3831719E-2,3.2071844E-1,-9.5601183E-1,-3.368159E-1,6.300529E-1,-1.0417933E0,-4.2539114E-1,-6.959335E-1,-2.0106629E-1,2.7266732E-1,7.470894E-1,-7.0126176E-1,-1.0717156E0,2.8772402E-1,-1.0304877E0,1.0292601E-1,-7.4300265E-1,3.406382E-1,-2.7785343E-1,4.991288E-1,-9.0483874E-2,9.020997E-1,5.362332E-1,-8.7947375E-1,-1.9299174E-2,-9.551894E-1,-1.0970711E-1,-1.2859172E-1,6.454917E-1,-4.1184726E-1,-1.0755774E-1,-3.9283475E-1,1.0696387E0,-9.7668725E-1,-6.255861E-1,4.851411E-1,-3.5908392E-1,-2.2074376E-1,-7.330185E-1,6.714481E-1,-4.4901037E-1,8.922478E-1,-2.0695207E-1,9.877423E-1,1.4883721E-1,-1.7714356E-1,7.3376924E-1,-1.0448556E0,-5.4964215E-1,-3.7020886E-1,1.2783436E-1,-1.0219705E0,-5.072005E-1,1.916127E-1,-9.397864E-1,1.3123624E0,1.9147024E-1,1.02483176E-1,-9.1903195E-2,3.637183E-2,-7.943302E-2,-3.1642955E-2,1.6683643E-1,-1.091504E-2,-9.866484E-2,-1.4709557E-2,-7.103462E-2,-3.9150737E-2,6.0219046E-2,-7.54673E-2,7.45103E-2,-3.666096E-2,-1.1506641E-2,-8.578586E-2,-9.718922E-3,5.01872E-2,9.359081E-2,-8.606182E-2,8.12407E-3,-4.9016386E-2,1.00349806E-1,-3.53639E-3,-4.4337865E-2,1.23179905E-1,8.879695E-2,-4.3998454E-2,9.352905E-2,1.02810934E-1,-3.0245155E-2,2.508041E-3,8.366793E-2,-1.4476761E-2,-1.0683954E-1,1.9775048E-2,-9.134366E-2,-5.6719016E-2,7.515509E-2,-1.041088E-1,-3.47916E-2,-9.373086E-2,4.5477297E-2,-6.0314E-3,9.596217E-2,-1.3767672E-2,-1.0199865E-1,1.4746581E-1,-3.3266228E-2,-7.9700954E-2,9.459584E-2],"categories":[],"categories_nodes":[],"categories_segments":[],"categories_sizes":[],"default_left":[0,0,0,0,0,0,0,0,0,0,0,0,0,0,0,0,0,0,0,0,0,0,0,0,0,0,0,0,0,0,0,0,0,0,0,0,0,0,0,0,0,0,0,0,0,0,0,0,0,0,0,0,0,0,0,0,0,0,0,0,0,0,0,0,0,0,0,0,0,0,0,0,0,0,0,0,0,0,0,0,0,0,0,0,0,0,0,0,0,0,0,0,0,0,0,0,0,0,0,0,0,0,0,0,0,0,0,0,0],"id":10,"left_children":[1,3,5,7,9,11,13,15,17,19,21,23,25,27,29,31,33,35,37,39,41,43,45,47,49,51,-1,53,55,57,-1,59,61,63,65,67,69,71,73,75,77,79,81,83,85,87,89,91,93,95,-1,97,99,101,103,105,107,-1,-1,-1,-1,-1,-1,-1,-1,-1,-1,-1,-1,-1,-1,-1,-1,-1,-1,-1,-1,-1,-1,-1,-1,-1,-1,-1,-1,-1,-1,-1,-1,-1,-1,-1,-1,-1,-1,-1,-1,-1,-1,-1,-1,-1,-1,-1,-1,-1,-1,-1,-1],"loss_changes":[1.2822983E3,6.108279E2,4.7932617E1,4.661763E1,8.51037E1,8.413025E0,6.518463E1,1.0029701E1,2.9162607E1,4.166007E1,4.9623352E1,9.277496E0,1.2304688E0,1.0509277E1,1.6830826E0,7.8655496E0,6.0501404E0,8.990225E0,1.5674797E1,5.1247154E1,2.241699E1,5.6787903E1,9.236279E1,2.5980263E0,8.185574E0,4.075363E0,0E0,8.799978E0,1.1030014E1,6.258678E0,0E0,3.624226E0,5.2733545E0,4.833374E-1,6.644928E0,7.7173862E0,7.2721357E0,8.32917E0,5.19508E0,1.1236511E1,1.072117E1,3.7332153E0,7.0398436E0,1.8021973E1,4.28678E1,2.176667E1,3.7275574E1,5.581627E-1,6.4269867E0,3.5731294E0,0E0,1.2629852E0,9.892511E0,4.8550878E0,3.5932636E-1,4.6183815E0,1.8461454E1,0E0,0E0,0E0,0E0,0E0,0E0,0E0,0E0,0E0,0E0,0E0,0E0,0E0,0E0,0E0,0E0,0E0,0E0,0E0,0E0,0E0,0E0,0E0,0E0,0E0,0E0,0E0,0E0,0E0,0E0,0E0,0E0,0E0,0E0,0E0,0E0,0E0,0E0,0E0,0E0,0E0,0E0,0E0,0E0,0E0,0E0,0E0,0E0,0E0,0E0,0E0,0E0],"parents":[2147483647,0,0,1,1,2,2,3,3,4,4,5,5,6,6,7,7,8,8,9,9,10,10,11,11,12,12,13,13,14,14,15,15,16,16,17,17,18,18,19,19,20,20,21,21,22,22,23,23,24,24,25,25,27,27,28,28,29,29,31,31,32,32,33,33,34,34,35,35,36,36,37,37,38,38,39,39,40,40,41,41,42,42,43,43,44,44,45,45,46,46,47,47,48,48,49,49,51,51,52,52,53,53,54,54,55,55,56,56],"right_children":[2,4,6,8,10,12,14,16,18,20,22,24,26,28,30,32,34,36,38,40,42,44,46,48,50,52,-1,54,56,58,-1,60,62,64,66,68,70,72,74,76,78,80,82,84,86,88,90,92,94,96,-1,98,100,102,104,106,108,-1,-1,-1,-1,-1,-1,-1,-1,-1,-1,-1,-1,-1,-1,-1,-1,-1,-1,-1,-1,-1,-1,-1,-1,-1,-1,-1,-1,-1,-1,-1,-1,-1,-1,-1,-1,-1,-1,-1,-1,-1,-1,-1,-1,-1,-1,-1,-1,-1,-1,-1,-1],"split_conditions":[1.6453449E0,-3.893095E0,3.2096848E1,-2.7401955E1,5.655261E0,1.7558719E0,2.1954532E0,1.9784398E0,2.1984873E0,2.1486141E1,3.8894176E1,1.7791718E1,2.0825388E0,1.236738E0,2.3260093E0,1.3650214E1,-4.1844322E1,2.437568E3,1.3731387E0,1.2480367E0,2.1795266E0,1.4195657E0,2.0643572E1,3.5416176E1,9.797814E-1,2.2593016E1,-1.0970711E-1,1.8723552E0,4.800783E1,1.9886765E1,-1.0755774E-1,-1.0644095E1,3.896654E1,-9.371413E0,-2.3044222E1,-4.527774E0,3.8463985E1,-1.4139123E1,4.6661945E1,2.694986E0,1.1498534E1,-2.9221867E1,1.9359843E0,7.338936E0,5.2275395E-1,2.16177E0,2.1497332E1,-1.6926859E2,3.758979E-1,5.3488388E1,1.2783436E-1,5.8122337E1,1.0415151E0,1.03917694E2,-6.694557E0,1.3080419E4,3.1656424E1,1.02483176E-1,-9.1903195E-2,3.637183E-2,-7.943302E-2,-3.1642955E-2,1.6683643E-1,-1.091504E-2,-9.866484E-2,-1.4709557E-2,-7.103462E-2,-3.9150737E-2,6.0219046E-2,-7.54673E-2,7.45103E-2,-3.666096E-2,-1.1506641E-2,-8.578586E-2,-9.718922E-3,5.01872E-2,9.359081E-2,-8.606182E-2,8.12407E-3,-4.9016386E-2,1.00349806E-1,-3.53639E-3,-4.4337865E-2,1.23179905E-1,8.879695E-2,-4.3998454E-2,9.352905E-2,1.02810934E-1,-3.0245155E-2,2.508041E-3,8.366793E-2,-1.4476761E-2,-1.0683954E-1,1.9775048E-2,-9.134366E-2,-5.6719016E-2,7.515509E-2,-1.041088E-1,-3.47916E-2,-9.373086E-2,4.5477297E-2,-6.0314E-3,9.596217E-2,-1.3767672E-2,-1.0199865E-1,1.4746581E-1,-3.3266228E-2,-7.9700954E-2,9.459584E-2],"split_indices":[14,1,1,1,1,14,14,12,12,2,2,1,14,15,14,4,1,0,14,14,12,14,1,2,15,1,0,14,2,11,0,7,11,4,7,4,2,1,2,1,2,7,1,12,15,12,11,3,15,11,0,2,15,3,4,0,11,0,0,0,0,0,0,0,0,0,0,0,0,0,0,0,0,0,0,0,0,0,0,0,0,0,0,0,0,0,0,0,0,0,0,0,0,0,0,0,0,0,0,0,0,0,0,0,0,0,0,0,0],"split_type":[0,0,0,0,0,0,0,0,0,0,0,0,0,0,0,0,0,0,0,0,0,0,0,0,0,0,0,0,0,0,0,0,0,0,0,0,0,0,0,0,0,0,0,0,0,0,0,0,0,0,0,0,0,0,0,0,0,0,0,0,0,0,0,0,0,0,0,0,0,0,0,0,0,0,0,0,0,0,0,0,0,0,0,0,0,0,0,0,0,0,0,0,0,0,0,0,0,0,0,0,0,0,0,0,0,0,0,0,0],"sum_hessian":[4.0659475E3,3.0009285E3,1.065019E3,9.5996796E2,2.0409606E3,9.158143E2,1.4920473E2,2.619998E2,6.979682E2,5.0452246E2,1.5364381E3,7.6215836E1,8.3959845E2,6.86541E1,8.055063E1,1.439395E1,2.4760583E2,8.6066055E1,6.1190216E2,3.1068185E2,1.938406E2,8.833175E2,6.531206E2,6.0079475E1,1.6136356E1,1.5765906E2,6.819394E2,3.1897589E1,3.6756508E1,6.31122E0,7.423941E1,9.838601E0,4.5553493E0,8.00731E1,1.6753273E2,7.170707E1,1.4358984E1,5.452004E2,6.6701744E1,2.6323718E2,4.7444675E1,1.9742077E1,1.7409854E2,7.927422E2,9.057529E1,1.4154514E2,5.1157547E2,3.836948E1,2.1709993E1,1.3324818E1,2.8115396E0,1.3589668E2,2.1762383E1,2.3329288E1,8.5683E0,1.4033378E1,2.272313E1,1.3289547E0,4.9822655E0,3.3573117E0,6.4812894E0,1.4659959E0,3.0893536E0,1.15867E0,7.891443E1,2.5800135E1,1.417326E2,8.069663E0,6.3637405E1,1.0871301E1,3.487683E0,2.2761261E2,3.175878E2,5.533139E1,1.1370353E1,1.623875E2,1.00849686E2,2.6465984E1,2.0978691E1,1.149791E0,1.8592285E1,1.0179365E2,7.230489E1,2.2645547E2,5.6628674E2,5.1974846E1,3.8600445E1,1.2576604E1,1.2896854E2,6.514825E1,4.4642722E2,1.2683823E0,3.71011E1,7.167127E0,1.4542866E1,1.1830839E1,1.4939781E0,1.3147493E2,4.4217525E0,1.5128064E1,6.634319E0,1.8162712E1,5.166577E0,1.1391181E0,7.429182E0,1.2922789E1,1.1105887E0,9.754517E0,1.2968613E1],"tree_param":{"num_deleted":"0","num_feature":"17","num_nodes":"109","size_leaf_vector":"1"}},{"base_weights":[-5.962134E-3,-5.270232E-1,2.8503537E-1,-7.251534E-1,-1.6476302E-1,5.183252E-1,-1.9716363E-1,-3.4138533E-1,-8.280617E-1,7.42955E-1,-2.44086E-1,7.6655877E-1,3.5087934E-1,-7.334008E-1,4.4647434E-1,-4.507285E-1,1.1195401E-1,-9.7587085E-1,-6.212632E-1,4.1198725E-1,1.2212917E0,-6.3366324E-1,-1.5924825E-1,1.0992687E0,6.282528E-1,5.1319516E-1,-9.147511E-1,-1.0719627E0,-2.8678393E-1,1.5592862E-2,7.1600324E-1,4.0958712E-1,-5.218628E-1,-8.747883E-1,2.6075083E-1,-7.544443E-1,-1.0769927E-1,-9.091983E-1,-5.263223E-1,-6.344834E-1,8.1724656E-1,1.4174347E-1,-6.5422887E-3,-2.1550864E-1,-7.1880794E-1,-1.299596E-1,-7.3793507E-1,1.1652887E0,5.144542E-1,8.38618E-1,3.1398013E-1,1.14239156E-1,6.2029296E-1,1.439365E-1,-1.0282665E0,-2.7387685E-1,-1.0793381E0,-5.610261E-1,5.2041215E-1,2.4065922E-1,-5.6470406E-1,8.4360063E-1,3.826381E-2,-8.921177E-2,6.875663E-2,-3.246217E-2,-6.8261586E-2,-1.0082588E-1,-1.3381329E-2,9.6544944E-2,7.1415066E-4,-1.06368475E-1,-4.910699E-2,-9.438269E-2,3.437344E-3,-6.802023E-2,-1.9755078E-2,-1.4722149E-2,-1.0349351E-1,9.713232E-2,-5.667425E-2,-7.309574E-2,7.293757E-2,-7.3928766E-2,4.653025E-3,1.6684776E-2,-2.138705E-2,2.8275147E-2,-8.270159E-2,9.750831E-2,1.3117132E-1,-2.762799E-2,9.00699E-2,6.969543E-2,1.2349301E-1,-1.2993363E-2,7.556945E-2,3.3193476E-2,-1.8892217E-2,7.174086E-2,6.881057E-3,-5.6391396E-2,9.262699E-2,-1.0497504E-1,-8.040882E-3,-6.575458E-2,3.1739995E-2,-1.083215E-1,-1.993616E-2,-1.137771E-2,-9.592284E-2,8.806838E-2,-8.2596995E-2,3.5733845E-2,-4.8488405E-2,6.7029074E-2,-6.862026E-2,1.3637259E-2,9.358451E-2,-7.345908E-2,7.122812E-2],"categories":[],"categories_nodes":[],"categories_segments":[],"categories_sizes":[],"default_left":[0,0,0,0,0,0,0,0,0,0,0,0,0,0,0,0,0,0,0,0,0,0,0,0,0,0,0,0,0,0,0,0,0,0,0,0,0,0,0,0,0,0,0,0,0,0,0,0,0,0,0,0,0,0,0,0,0,0,0,0,0,0,0,0,0,0,0,0,0,0,0,0,0,0,0,0,0,0,0,0,0,0,0,0,0,0,0,0,0,0,0,0,0,0,0,0,0,0,0,0,0,0,0,0,0,0,0,0,0,0,0,0,0,0,0,0,0,0,0,0,0],"id":11,"left_children":[1,3,5,7,9,11,13,15,17,19,21,23,25,27,29,31,33,35,37,39,41,43,45,47,49,51,53,55,57,59,61,63,65,67,69,71,-1,73,75,77,79,-1,-1,81,83,85,87,89,91,93,95,97,99,101,103,105,107,109,111,113,115,117,119,-1,-1,-1,-1,-1,-1,-1,-1,-1,-1,-1,-1,-1,-1,-1,-1,-1,-1,-1,-1,-1,-1,-1,-1,-1,-1,-1,-1,-1,-1,-1,-1,-1,-1,-1,-1,-1,-1,-1,-1,-1,-1,-1,-1,-1,-1,-1,-1,-1,-1,-1,-1,-1,-1,-1,-1,-1,-1],"loss_changes":[5.9603546E2,1.0089978E2,2.838485E2,3.554541E1,3.6098717E1,7.0287384E1,2.8438287E2,9.7188E0,2.1144287E1,5.7119923E0,1.5030964E1,3.0601288E1,2.0943053E2,6.750636E1,4.3413498E1,9.831188E0,5.8036795E0,8.318756E0,7.628563E0,1.1328212E1,4.226671E0,2.6624565E0,6.24909E0,6.9248657E0,3.1721832E1,3.8414536E1,1.4169243E1,1.0707092E0,4.3520473E1,1.9079922E1,1.9791E1,5.0945215E0,4.291992E0,2.6241636E-1,6.0116415E0,1.0241226E1,0E0,2.5153046E0,1.1394138E1,1.21187E0,4.610203E0,0E0,0E0,8.061823E0,1.1584969E0,9.070494E0,1.9160576E0,3.4519348E0,7.0775614E0,1.5231293E1,3.8687016E1,1.2775453E1,3.7953033E1,7.2143927E0,1.9390411E0,1.1048105E0,5.166321E-1,2.5842258E1,2.4958239E1,9.09314E0,6.580435E0,1.2395004E1,2.0134773E1,0E0,0E0,0E0,0E0,0E0,0E0,0E0,0E0,0E0,0E0,0E0,0E0,0E0,0E0,0E0,0E0,0E0,0E0,0E0,0E0,0E0,0E0,0E0,0E0,0E0,0E0,0E0,0E0,0E0,0E0,0E0,0E0,0E0,0E0,0E0,0E0,0E0,0E0,0E0,0E0,0E0,0E0,0E0,0E0,0E0,0E0,0E0,0E0,0E0,0E0,0E0,0E0,0E0,0E0,0E0,0E0,0E0,0E0],"parents":[2147483647,0,0,1,1,2,2,3,3,4,4,5,5,6,6,7,7,8,8,9,9,10,10,11,11,12,12,13,13,14,14,15,15,16,16,17,17,18,18,19,19,20,20,21,21,22,22,23,23,24,24,25,25,26,26,27,27,28,28,29,29,30,30,31,31,32,32,33,33,34,34,35,35,37,37,38,38,39,39,40,40,43,43,44,44,45,45,46,46,47,47,48,48,49,49,50,50,51,51,52,52,53,53,54,54,55,55,56,56,57,57,58,58,59,59,60,60,61,61,62,62],"right_children":[2,4,6,8,10,12,14,16,18,20,22,24,26,28,30,32,34,36,38,40,42,44,46,48,50,52,54,56,58,60,62,64,66,68,70,72,-1,74,76,78,80,-1,-1,82,84,86,88,90,92,94,96,98,100,102,104,106,108,110,112,114,116,118,120,-1,-1,-1,-1,-1,-1,-1,-1,-1,-1,-1,-1,-1,-1,-1,-1,-1,-1,-1,-1,-1,-1,-1,-1,-1,-1,-1,-1,-1,-1,-1,-1,-1,-1,-1,-1,-1,-1,-1,-1,-1,-1,-1,-1,-1,-1,-1,-1,-1,-1,-1,-1,-1,-1,-1,-1,-1,-1],"split_conditions":[-2.428101E0,1E0,8.681571E3,3.016965E3,2.0033362E0,3.186587E3,7.56775E3,-8.343663E0,6.4814863E3,-1.0679064E1,-2.6104336E1,4.702966E0,4E0,6.3250347E3,1.1756241E1,1.9013759E3,7.1881127E0,6.6708525E3,-3.383081E1,3.8080975E1,4.287375E1,7.659891E0,7.329194E-1,2.7860178E3,3.656048E1,5.2489977E0,3.4777441E3,8.736273E3,3.2637604E1,1.2597219E4,1.3834302E4,2.89828E-1,6.616058E3,9.598326E3,1.2405466E1,4.595023E0,-1.0769927E-1,1.0817419E4,3.5416176E1,1.2866024E3,-1.2098066E1,1.4174347E-1,-6.5422887E-3,7.338936E0,1.6924548E2,5.326515E0,-6.35772E0,1.2611104E1,2.7808508E-1,5.387426E-1,3.2637604E1,2.0640274E1,5.261977E1,6.56146E-1,1.3276194E0,4.0171646E3,2.7045922E0,1.0525576E4,1.2908306E4,4.180744E1,-1.506166E2,1.3591392E1,2.726838E1,-8.921177E-2,6.875663E-2,-3.246217E-2,-6.8261586E-2,-1.0082588E-1,-1.3381329E-2,9.6544944E-2,7.1415066E-4,-1.06368475E-1,-4.910699E-2,-9.438269E-2,3.437344E-3,-6.802023E-2,-1.9755078E-2,-1.4722149E-2,-1.0349351E-1,9.713232E-2,-5.667425E-2,-7.309574E-2,7.293757E-2,-7.3928766E-2,4.653025E-3,1.6684776E-2,-2.138705E-2,2.8275147E-2,-8.270159E-2,9.750831E-2,1.3117132E-1,-2.762799E-2,9.00699E-2,6.969543E-2,1.2349301E-1,-1.2993363E-2,7.556945E-2,3.3193476E-2,-1.8892217E-2,7.174086E-2,6.881057E-3,-5.6391396E-2,9.262699E-2,-1.0497504E-1,-8.040882E-3,-6.575458E-2,3.1739995E-2,-1.083215E-1,-1.993616E-2,-1.137771E-2,-9.592284E-2,8.806838E-2,-8.2596995E-2,3.5733845E-2,-4.8488405E-2,6.7029074E-2,-6.862026E-2,1.3637259E-2,9.358451E-2,-7.345908E-2,7.122812E-2],"split_indices":[1,16,0,0,12,0,9,1,9,1,1,12,13,9,1,9,2,0,1,11,11,12,15,0,2,1,0,0,1,0,0,15,9,9,2,12,0,9,2,0,1,0,0,12,3,12,4,1,15,15,1,2,2,15,15,9,15,0,0,2,3,12,1,0,0,0,0,0,0,0,0,0,0,0,0,0,0,0,0,0,0,0,0,0,0,0,0,0,0,0,0,0,0,0,0,0,0,0,0,0,0,0,0,0,0,0,0,0,0,0,0,0,0,0,0,0,0,0,0,0,0],"split_type":[0,0,0,0,0,0,0,0,0,0,0,0,0,0,0,0,0,0,0,0,0,0,0,0,0,0,0,0,0,0,0,0,0,0,0,0,0,0,0,0,0,0,0,0,0,0,0,0,0,0,0,0,0,0,0,0,0,0,0,0,0,0,0,0,0,0,0,0,0,0,0,0,0,0,0,0,0,0,0,0,0,0,0,0,0,0,0,0,0,0,0,0,0,0,0,0,0,0,0,0,0,0,0,0,0,0,0,0,0,0,0,0,0,0,0,0,0,0,0,0,0],"sum_hessian":[3.92877E3,1.4076895E3,2.5210806E3,9.091643E2,4.9852512E2,1.6991549E3,8.2192566E2,1.9336235E2,7.1580194E2,3.9290024E1,4.592351E2,6.827795E2,1.0163754E3,4.483803E2,3.7354535E2,1.559696E2,3.7392746E1,4.149874E2,3.0081454E2,2.444591E1,1.4844115E1,8.075556E1,3.7847955E2,1.9823427E2,4.8454523E2,9.014402E2,1.1493525E2,2.5411902E2,1.9426128E2,1.4429596E2,2.292494E2,1.1440586E1,1.4452902E2,4.1724057E0,3.322034E1,1.330648E2,2.8192258E2,7.220444E1,2.2861012E2,6.597444E0,1.7848465E1,1.2859914E1,1.9842013E0,1.4457726E1,6.629784E1,3.6157672E2,1.6902832E1,1.7708005E2,2.115422E1,2.89066E2,1.9547919E2,1.9140974E2,7.100304E2,1.1018998E1,1.03916245E2,2.8001924E0,2.5131883E2,1.4531862E2,4.8942657E1,1.0451698E2,3.9778976E1,1.9259705E2,3.665236E1,1.5611389E0,9.879447E0,6.653421E1,7.799481E1,3.1155336E0,1.0568721E0,7.9443645E0,2.5275976E1,5.963093E1,7.3433876E1,6.975035E1,2.4540894E0,1.5478883E2,7.382128E1,3.7057345E0,2.8917098E0,1.6393803E1,1.4546623E0,9.569601E0,4.888124E0,6.473041E1,1.567423E0,7.921157E1,2.8236514E2,1.0921645E0,1.5810668E1,8.065339E1,9.642667E1,6.950568E0,1.4203651E1,2.151651E2,7.3900925E1,9.7736E1,9.7743195E1,1.11545525E2,7.986422E1,6.033065E2,1.0672392E2,5.864343E0,5.154655E0,1.0140485E2,2.5113995E0,1.7328347E0,1.0673577E0,2.4987337E2,1.4454668E0,6.9168015E1,7.615061E1,3.8942413E1,1.0000243E1,9.05934E1,1.3923584E1,3.0846417E0,3.6694336E1,2.263321E1,1.6996384E2,1.696332E1,1.968904E1],"tree_param":{"num_deleted":"0","num_feature":"17","num_nodes":"121","size_leaf_vector":"1"}},{"base_weights":[-1.680363E-2,2.579206E-1,-9.4095266E-1,-2.8755185E-1,5.513117E-1,-1.0191749E0,-3.5754314E-1,-5.150005E-1,-1.0760833E-1,3.8214278E-1,7.278382E-1,-8.6049473E-1,-1.0787423E-1,3.089319E-1,-1.0437509E0,1.08862214E-1,-5.6994456E-1,-1.662969E-2,-6.739191E-1,5.1841754E-1,-1.8107943E-1,9.013554E-1,4.7757912E-1,-4.8637694E-1,-9.96009E-1,5.5183613E-1,-4.826614E-1,-4.0306753E-1,-1.0611222E-1,2.3989409E-1,-8.862874E-2,-9.078945E-1,-4.992762E-1,3.3190748E-1,-1.3230217E-1,-9.7627395E-1,-3.4746882E-1,6.146196E-1,-7.0292985E-1,-7.0873827E-1,-5.060617E-2,9.7879016E-1,7.0593524E-1,-7.00775E-2,7.6467043E-1,-7.651169E-1,4.4666904E-1,-1.051322E0,-6.039962E-1,1.1648856E0,1.8880278E-1,-9.4182885E-1,5.647824E-1,-5.438785E-2,-3.1586285E-4,-6.2268265E-2,4.2839803E-2,-9.570696E-2,-5.4243464E-2,-3.208016E-2,-5.7960223E-2,1.379116E-1,2.6446993E-2,-2.3371555E-2,8.779029E-3,-4.0349406E-3,-9.974536E-2,1.6711017E-2,-6.2938206E-2,7.47857E-2,3.892948E-2,-9.4145834E-2,1.8903844E-2,-8.123001E-2,-0E0,5.4560877E-2,-1.4184174E-2,1.2363627E-1,9.11607E-2,7.434166E-2,-2.591264E-2,-5.4397907E-2,3.4957018E-2,-2.9311324E-2,8.814406E-2,-1.06846906E-1,-3.5420414E-2,7.26997E-2,-6.2820345E-2,-1.0578262E-1,-1.418408E-2,-2.2205083E-2,-1.0305315E-1,-1.2204117E-2,1.4339891E-1,-6.0906645E-2,5.9609648E-2,6.2371655E-3,-1.08966306E-1,-2.424295E-2,1.1330134E-1],"categories":[],"categories_nodes":[],"categories_segments":[],"categories_sizes":[],"default_left":[0,0,0,0,0,0,0,0,0,0,0,0,0,0,0,0,0,0,0,0,0,0,0,0,0,0,0,0,0,0,0,0,0,0,0,0,0,0,0,0,0,0,0,0,0,0,0,0,0,0,0,0,0,0,0,0,0,0,0,0,0,0,0,0,0,0,0,0,0,0,0,0,0,0,0,0,0,0,0,0,0,0,0,0,0,0,0,0,0,0,0,0,0,0,0,0,0,0,0,0,0],"id":12,"left_children":[1,3,5,7,9,11,13,15,17,19,21,23,-1,25,27,29,31,33,35,37,39,41,43,45,47,49,51,53,-1,55,-1,57,59,61,63,65,67,69,71,73,75,77,79,81,83,85,87,89,91,93,95,97,99,-1,-1,-1,-1,-1,-1,-1,-1,-1,-1,-1,-1,-1,-1,-1,-1,-1,-1,-1,-1,-1,-1,-1,-1,-1,-1,-1,-1,-1,-1,-1,-1,-1,-1,-1,-1,-1,-1,-1,-1,-1,-1,-1,-1,-1,-1,-1,-1],"loss_changes":[9.7524506E2,4.7402045E2,3.9668823E1,4.2286507E1,5.7118347E1,6.2078857E0,4.876452E1,1.5777031E1,2.9800106E1,7.5786804E1,4.0292664E1,1.0371857E1,0E0,1.0723644E1,9.189606E-3,5.062929E0,9.446762E0,2.0216503E1,7.4342384E0,9.372795E1,1.3150577E1,7.528778E0,6.1072067E1,1.5943898E1,2.6296082E0,9.025754E0,6.91735E0,1.20848715E-1,0E0,5.8053985E0,0E0,6.112671E-1,4.744278E0,8.289619E0,8.449463E0,6.661415E-1,5.9867435E0,2.1713226E1,1.2672682E1,2.8313942E0,8.5053E0,5.477051E0,6.07444E0,2.6881996E1,3.1756104E1,5.2815456E0,4.7814245E0,5.407257E-1,3.2519236E0,5.633013E0,9.386042E0,1.5983953E0,2.4650335E0,0E0,0E0,0E0,0E0,0E0,0E0,0E0,0E0,0E0,0E0,0E0,0E0,0E0,0E0,0E0,0E0,0E0,0E0,0E0,0E0,0E0,0E0,0E0,0E0,0E0,0E0,0E0,0E0,0E0,0E0,0E0,0E0,0E0,0E0,0E0,0E0,0E0,0E0,0E0,0E0,0E0,0E0,0E0,0E0,0E0,0E0,0E0,0E0],"parents":[2147483647,0,0,1,1,2,2,3,3,4,4,5,5,6,6,7,7,8,8,9,9,10,10,11,11,13,13,14,14,15,15,16,16,17,17,18,18,19,19,20,20,21,21,22,22,23,23,24,24,25,25,26,26,27,27,29,29,31,31,32,32,33,33,34,34,35,35,36,36,37,37,38,38,39,39,40,40,41,41,42,42,43,43,44,44,45,45,46,46,47,47,48,48,49,49,50,50,51,51,52,52],"right_children":[2,4,6,8,10,12,14,16,18,20,22,24,-1,26,28,30,32,34,36,38,40,42,44,46,48,50,52,54,-1,56,-1,58,60,62,64,66,68,70,72,74,76,78,80,82,84,86,88,90,92,94,96,98,100,-1,-1,-1,-1,-1,-1,-1,-1,-1,-1,-1,-1,-1,-1,-1,-1,-1,-1,-1,-1,-1,-1,-1,-1,-1,-1,-1,-1,-1,-1,-1,-1,-1,-1,-1,-1,-1,-1,-1,-1,-1,-1,-1,-1,-1,-1,-1,-1],"split_conditions":[1.6923044E0,-1.6541272E0,3.485835E1,-1.6946787E1,4.3929222E-1,2.1717587E0,2.3260093E0,1.0284038E2,1.3099796E0,3.700926E1,4.5370743E1,2.1616219E1,-1.0787423E-1,1.3080419E4,2.4145215E0,1.4195657E0,-4.1844322E1,4.1133525E3,2.0640274E1,1.4421254E0,3.4457508E1,6.6708525E3,3.550166E1,2.2593016E1,5.1100418E1,4.779657E1,9.267529E3,5.82416E-1,-1.0611222E-1,-2.8554306E0,-8.862874E-2,5.209991E1,-1.483099E1,-7.485561E0,7.027818E3,1.14698425E-1,-1.3231518E1,2.0038218E1,2.7822395E1,1.4195657E0,6.3483667E3,2.3207134E1,5.3972744E1,3.624642E1,2.0696093E1,2.8859482E1,4.6217697E1,9.9268097E-1,8.3022684E-1,4.745233E2,2.1929575E1,3.288391E1,8.3022684E-1,-5.438785E-2,-3.1586285E-4,-6.2268265E-2,4.2839803E-2,-9.570696E-2,-5.4243464E-2,-3.208016E-2,-5.7960223E-2,1.379116E-1,2.6446993E-2,-2.3371555E-2,8.779029E-3,-4.0349406E-3,-9.974536E-2,1.6711017E-2,-6.2938206E-2,7.47857E-2,3.892948E-2,-9.4145834E-2,1.8903844E-2,-8.123001E-2,-0E0,5.4560877E-2,-1.4184174E-2,1.2363627E-1,9.11607E-2,7.434166E-2,-2.591264E-2,-5.4397907E-2,3.4957018E-2,-2.9311324E-2,8.814406E-2,-1.06846906E-1,-3.5420414E-2,7.26997E-2,-6.2820345E-2,-1.0578262E-1,-1.418408E-2,-2.2205083E-2,-1.0305315E-1,-1.2204117E-2,1.4339891E-1,-6.0906645E-2,5.9609648E-2,6.2371655E-3,-1.08966306E-1,-2.424295E-2,1.1330134E-1],"split_indices":[14,1,1,1,15,14,14,10,14,2,2,11,0,0,14,14,1,9,2,14,11,0,1,1,2,2,9,5,0,4,0,11,7,4,0,5,7,2,2,14,9,2,11,11,11,2,2,5,15,10,11,11,15,0,0,0,0,0,0,0,0,0,0,0,0,0,0,0,0,0,0,0,0,0,0,0,0,0,0,0,0,0,0,0,0,0,0,0,0,0,0,0,0,0,0,0,0,0,0,0,0],"split_type":[0,0,0,0,0,0,0,0,0,0,0,0,0,0,0,0,0,0,0,0,0,0,0,0,0,0,0,0,0,0,0,0,0,0,0,0,0,0,0,0,0,0,0,0,0,0,0,0,0,0,0,0,0,0,0,0,0,0,0,0,0,0,0,0,0,0,0,0,0,0,0,0,0,0,0,0,0,0,0,0,0,0,0,0,0,0,0,0,0,0,0,0,0,0,0,0,0,0,0,0,0],"sum_hessian":[3.8390447E3,2.9597922E3,8.792525E2,1.03507E3,1.9247223E3,7.7449194E2,1.0476061E2,4.561184E2,5.789516E2,9.8474927E2,9.39973E2,2.1605931E2,5.584326E2,5.3349403E1,5.141121E1,3.6692425E1,4.19426E2,4.9985507E2,7.90965E1,7.9310913E2,1.916401E2,5.5332434E2,3.8664868E2,5.8867992E1,1.5719133E2,4.1151173E1,1.219823E1,2.1480272E0,4.926318E1,3.318267E1,3.5097558E0,7.024388E1,3.491821E2,1.2387342E2,3.7598166E2,3.987125E1,3.9225246E1,7.3573596E2,5.7373177E1,3.6961643E1,1.5467845E2,3.9305634E2,1.6026804E2,1.3311862E2,2.5353004E2,4.554804E1,1.3319953E1,1.3605676E2,2.113456E1,1.4381356E1,2.6769815E1,8.61707E0,3.5811598E0,1.137457E0,1.0105702E0,5.44286E0,2.773981E1,6.0245052E1,9.998826E0,1.1031481E2,2.388673E2,6.2280254E0,1.1764539E2,2.5765347E2,1.1832817E2,1.0510762E0,3.8820175E1,1.3902104E1,2.5323141E1,4.6060913E2,2.7512683E2,4.531244E1,1.2060739E1,3.2190147E1,4.7714972E0,1.972186E1,1.349566E2,7.740466E1,3.1565167E2,1.5459703E2,5.6710014E0,6.249078E1,7.0627846E1,2.4969822E1,2.2856023E2,2.5142933E1,2.0405106E1,1.0895161E1,2.4247928E0,1.3481955E2,1.2372166E0,1.2076011E1,9.058548E0,2.5173895E0,1.1863967E1,8.796657E0,1.797316E1,1.093161E0,7.523909E0,1.6436362E0,1.9375237E0],"tree_param":{"num_deleted":"0","num_feature":"17","num_nodes":"101","size_leaf_vector":"1"}},{"base_weights":[-6.427321E-3,-5.038264E-1,2.337812E-1,-2.0373163E-1,-6.8393147E-1,4.2426974E-1,-1.7442968E-1,-8.0311614E-1,-1.19923614E-1,-9.6745574E-1,-4.680485E-1,6.6249716E-1,2.9070455E-1,-8.169842E-1,3.0143827E-1,-4.2344818E-1,-9.132594E-1,-2.0419203E-1,1.3570458E-1,-6.8522966E-1,-1.0404304E0,-3.339514E-1,-7.25234E-1,9.663554E-1,4.9559686E-1,4.0601906E-1,-7.121174E-1,-1.0375851E0,-3.8199714E-1,-4.3861773E-2,5.3692824E-1,4.4434664E-1,-6.115198E-1,-9.75285E-1,-3.618716E-2,-3.729735E-1,-6.0691025E-2,-3.8443998E-1,2.3025101E-1,-9.51048E-1,-4.068569E-1,-9.445163E-3,-1.0440941E-1,-5.2529055E-1,-1.4380684E-1,-7.3605794E-1,3.6804613E-2,7.984236E-1,1.1569598E0,6.202793E-1,5.322872E-2,1.6155863E-2,4.78076E-1,3.7378594E-1,-9.5268285E-1,-3.694818E-1,-1.058032E0,-9.1147476E-1,2.1884345E-2,5.7646353E-2,-9.759376E-1,6.787647E-2,6.959528E-1,1.3387106E-1,-5.9156008E-2,-1.1731358E-2,-9.7332455E-2,-1.9144887E-2,-1.0196777E-1,5.5089023E-2,-6.248168E-2,-2.7214E-2,-7.67205E-2,4.698473E-2,-1.741308E-2,2.0886661E-2,-7.7521466E-2,-5.166142E-2,2.810939E-2,-9.745734E-2,-6.9684945E-3,-8.190229E-2,-2.203048E-3,-4.196867E-2,-8.844843E-2,-4.2696197E-2,6.274785E-4,-7.548407E-2,4.7463714E-4,9.3515076E-2,-1.921841E-2,5.0240285E-3,1.24046326E-1,9.686274E-2,5.1326014E-2,-2.8442401E-2,5.8068823E-2,1.1730756E-2,-3.906018E-2,5.9967335E-2,1.6993275E-2,-6.5378785E-2,9.02047E-2,-9.916E-2,4.6621747E-2,-9.072729E-2,1.1592871E-1,-1.0624816E-1,-4.6994453E-3,-7.6382994E-3,-9.70949E-2,5.119754E-2,-7.467811E-2,-4.0538847E-2,2.1382978E-2,-2.5790487E-3,-1.0239784E-1,2.5465919E-2,-6.6967666E-2,8.0478124E-2,1.4578143E-2],"categories":[],"categories_nodes":[],"categories_segments":[],"categories_sizes":[],"default_left":[0,0,0,0,0,0,0,0,0,0,0,0,0,0,0,0,0,0,0,0,0,0,0,0,0,0,0,0,0,0,0,0,0,0,0,0,0,0,0,0,0,0,0,0,0,0,0,0,0,0,0,0,0,0,0,0,0,0,0,0,0,0,0,0,0,0,0,0,0,0,0,0,0,0,0,0,0,0,0,0,0,0,0,0,0,0,0,0,0,0,0,0,0,0,0,0,0,0,0,0,0,0,0,0,0,0,0,0,0,0,0,0,0,0,0,0,0,0,0,0,0],"id":13,"left_children":[1,3,5,7,9,11,13,15,17,19,21,23,25,27,29,31,33,35,37,39,41,43,45,47,49,51,53,55,57,59,61,63,65,67,69,71,73,75,77,79,81,-1,-1,83,85,87,-1,89,91,93,95,97,99,101,103,105,107,109,111,113,115,117,119,-1,-1,-1,-1,-1,-1,-1,-1,-1,-1,-1,-1,-1,-1,-1,-1,-1,-1,-1,-1,-1,-1,-1,-1,-1,-1,-1,-1,-1,-1,-1,-1,-1,-1,-1,-1,-1,-1,-1,-1,-1,-1,-1,-1,-1,-1,-1,-1,-1,-1,-1,-1,-1,-1,-1,-1,-1,-1],"loss_changes":[4.4576758E2,6.544437E1,1.9571375E2,2.2785927E1,4.584253E1,5.430356E1,2.4520323E2,1.8123169E0,8.706575E0,5.845764E0,1.4580673E1,3.057956E1,1.2762293E2,3.2197525E1,3.7542507E1,2.6733067E0,2.1576614E0,7.283903E0,4.9965043E0,4.6834946E0,6.799011E-1,1.0285753E1,2.0501022E0,5.8227997E0,2.1930084E1,2.771289E1,3.0157967E1,2.5483856E0,2.5028057E1,1.7896566E1,2.032978E1,3.7268949E0,2.0163364E0,1.0490875E0,1.7097898E0,5.210087E0,1.0014399E1,3.8378606E0,3.3684788E0,5.545902E-1,5.655265E0,0E0,0E0,4.8933716E0,6.2238455E0,2.1131744E0,0E0,1.6345245E1,8.964874E0,1.0960968E1,1.6062462E1,6.4146147E0,3.1073257E1,1.2172661E1,5.681656E0,7.917662E0,8.2092285E-1,2.3319626E0,2.5588972E1,1.2362669E1,7.165165E-1,9.86812E0,1.2032715E1,0E0,0E0,0E0,0E0,0E0,0E0,0E0,0E0,0E0,0E0,0E0,0E0,0E0,0E0,0E0,0E0,0E0,0E0,0E0,0E0,0E0,0E0,0E0,0E0,0E0,0E0,0E0,0E0,0E0,0E0,0E0,0E0,0E0,0E0,0E0,0E0,0E0,0E0,0E0,0E0,0E0,0E0,0E0,0E0,0E0,0E0,0E0,0E0,0E0,0E0,0E0,0E0,0E0,0E0,0E0,0E0,0E0,0E0],"parents":[2147483647,0,0,1,1,2,2,3,3,4,4,5,5,6,6,7,7,8,8,9,9,10,10,11,11,12,12,13,13,14,14,15,15,16,16,17,17,18,18,19,19,20,20,21,21,22,22,23,23,24,24,25,25,26,26,27,27,28,28,29,29,30,30,31,31,32,32,33,33,34,34,35,35,36,36,37,37,38,38,39,39,40,40,43,43,44,44,45,45,47,47,48,48,49,49,50,50,51,51,52,52,53,53,54,54,55,55,56,56,57,57,58,58,59,59,60,60,61,61,62,62],"right_children":[2,4,6,8,10,12,14,16,18,20,22,24,26,28,30,32,34,36,38,40,42,44,46,48,50,52,54,56,58,60,62,64,66,68,70,72,74,76,78,80,82,-1,-1,84,86,88,-1,90,92,94,96,98,100,102,104,106,108,110,112,114,116,118,120,-1,-1,-1,-1,-1,-1,-1,-1,-1,-1,-1,-1,-1,-1,-1,-1,-1,-1,-1,-1,-1,-1,-1,-1,-1,-1,-1,-1,-1,-1,-1,-1,-1,-1,-1,-1,-1,-1,-1,-1,-1,-1,-1,-1,-1,-1,-1,-1,-1,-1,-1,-1,-1,-1,-1,-1,-1,-1],"split_conditions":[-3.893095E0,4.3441123E3,8.579605E3,-3.739303E1,6.5937627E3,2.8397488E3,7.1560854E3,2.1424412E3,-8.593986E0,6.144347E3,5.4369897E-1,4.9545684E0,4E0,6.3250347E3,1.2041806E1,4.2043175E1,5.305404E1,1E0,7.3813004E0,4.876262E0,-1.785552E2,2.3595905E1,2.9707134E1,1.5367298E1,4.6450405E1,2.694986E0,3.356845E3,8.736273E3,1.5697886E1,1.3939295E4,1.3591392E1,-3.8822937E1,1.7269476E3,8.2293135E-1,9.716851E3,3.0779116E3,2.0094934E0,1.7269476E3,1.8886139E1,4.337279E3,-2.0658566E1,-9.445163E-3,-1.0440941E-1,1.1694524E4,2E0,1.632533E1,3.6804613E-2,4.26644E1,1.8886139E1,1.3312703E1,4.0333813E1,3.6776615E1,4.4941628E1,1.2326468E1,1.3751348E0,1.4544046E0,2.7045922E0,7.3120403E0,1.1582378E4,9.148102E3,-2.6735444E0,1.2964229E4,1.3834302E4,1.3387106E-1,-5.9156008E-2,-1.1731358E-2,-9.7332455E-2,-1.9144887E-2,-1.0196777E-1,5.5089023E-2,-6.248168E-2,-2.7214E-2,-7.67205E-2,4.698473E-2,-1.741308E-2,2.0886661E-2,-7.7521466E-2,-5.166142E-2,2.810939E-2,-9.745734E-2,-6.9684945E-3,-8.190229E-2,-2.203048E-3,-4.196867E-2,-8.844843E-2,-4.2696197E-2,6.274785E-4,-7.548407E-2,4.7463714E-4,9.3515076E-2,-1.921841E-2,5.0240285E-3,1.24046326E-1,9.686274E-2,5.1326014E-2,-2.8442401E-2,5.8068823E-2,1.1730756E-2,-3.906018E-2,5.9967335E-2,1.6993275E-2,-6.5378785E-2,9.02047E-2,-9.916E-2,4.6621747E-2,-9.072729E-2,1.1592871E-1,-1.0624816E-1,-4.6994453E-3,-7.6382994E-3,-9.70949E-2,5.119754E-2,-7.467811E-2,-4.0538847E-2,2.1382978E-2,-2.5790487E-3,-1.0239784E-1,2.5465919E-2,-6.6967666E-2,8.0478124E-2,1.4578143E-2],"split_indices":[1,0,0,1,9,0,9,9,1,0,15,12,13,9,1,2,11,16,2,12,3,2,4,1,2,1,0,0,1,0,12,1,0,15,9,0,12,0,11,9,1,0,0,0,6,12,0,2,11,2,1,2,2,1,15,15,15,12,0,9,1,0,0,0,0,0,0,0,0,0,0,0,0,0,0,0,0,0,0,0,0,0,0,0,0,0,0,0,0,0,0,0,0,0,0,0,0,0,0,0,0,0,0,0,0,0,0,0,0,0,0,0,0,0,0,0,0,0,0,0,0],"split_type":[0,0,0,0,0,0,0,0,0,0,0,0,0,0,0,0,0,0,0,0,0,0,0,0,0,0,0,0,0,0,0,0,0,0,0,0,0,0,0,0,0,0,0,0,0,0,0,0,0,0,0,0,0,0,0,0,0,0,0,0,0,0,0,0,0,0,0,0,0,0,0,0,0,0,0,0,0,0,0,0,0,0,0,0,0,0,0,0,0,0,0,0,0,0,0,0,0,0,0,0,0,0,0,0,0,0,0,0,0,0,0,0,0,0,0,0,0,0,0,0,0],"sum_hessian":[3.728701E3,1.2140631E3,2.514638E3,4.5635745E2,7.577056E2,1.7146943E3,7.9994354E2,5.4782658E1,4.015748E2,3.2583466E2,4.31871E2,6.1430634E2,1.1003881E3,3.401455E2,4.5979803E2,1.3612447E1,4.117021E1,3.0246042E2,9.9114365E1,6.935765E1,